svm_type c_svc
kernel_type rbf
gamma 0.000460829
nr_class 9
total_sv 3659
rho -1.02739 -1.02812 -1.02114 -1.02384 -1.00741 -1.00856 -1.00898 -1.00229 -0.958469 -0.978779 -0.99205 -0.989536 -0.991583 -0.998576 -1.00026 -0.969924 -0.966047 -0.976532 -0.979762 -0.993177 -0.996811 -0.932908 -0.97002 -0.970562 -0.990459 -0.99687 -0.97009 -0.972743 -0.996426 -0.998399 -0.993758 -0.999447 -0.999966 -0.994476 -0.999116 -0.997427
label 0 1 5 2 6 4 3 7 8
nr_sv 2514 521 220 197 107 37 36 19 8
SV
0 0 0 0 0 0.2748278412436811 0 0 3:1 4:1 5:1 6:1 7:1 
0 0.9632023483389692 0 0 0 0 0 0 8:1 9:1 10:1 11:1 
1 0 0 0 0 0 0 0 6:1 12:1 13:1 14:1 15:1 16:1 
0.2337431631624958 0 0 0 0 0 0 0 59:1 60:1 61:1 62:1 63:1 64:1 
0 0 0 0 0 0 0 0.04944481978077168 40:1 83:1 84:1 85:1 86:1 87:1 88:1 89:1 
0 0 0.2474195329949687 0 0 0 0 0 112:1 166:1 
0.5421626972757801 0 0 0 0 0 0 0 19:1 29:1 88:1 181:1 182:1 183:1 184:1 185:1 
0.6772319078632176 0 0 0.162671176160621 0 0 0 0 22:1 186:1 187:1 188:1 189:1 190:1 
0 0 0 0.1514195350007562 0 0 0 0.2478357280153032 197:1 198:1 199:1 
0 0 0 1 0 0 0 0 197:1 202:1 
0.4734350506493221 0 0 0 0 0 0 0 204:1 205:1 206:1 207:1 
0 0 0 0.158688519505808 0 0 0 0 218:1 219:1 220:1 
1 0 0 0 0 0 0 0 34:1 57:1 
0.2345515140851826 0 0 0 0 0 0 0 229:1 230:1 
0 0 0.1203259685738426 0.09709764470448901 0 0 0 0 116:1 183:1 233:1 234:1 235:1 
0 0.6041812181387703 0 0 0 0 0 0 39:1 73:1 116:1 193:1 202:1 242:1 243:1 244:1 245:1 246:1 247:1 
0 0 0.2280341464676589 0 0 0 0 0 30:1 82:1 266:1 267:1 268:1 
0.2262470395057544 0 0 0 0 0 0 0 228:1 282:1 283:1 284:1 285:1 286:1 287:1 
0.146473544261125 0 0 0 0 0 0 0 177:1 275:1 288:1 289:1 290:1 
0.921915745061201 0 0 0 0 0 0 0 63:1 292:1 293:1 294:1 295:1 296:1 
0.7086977885644833 0 0 0 0 0 0 0 182:1 
0 0.5257476420164648 0 0 0 0 0 0 335:1 336:1 
0 0 0.02940470998544741 0 0 0 0 0 5:1 17:1 19:1 20:1 334:1 342:1 343:1 344:1 345:1 
0 0 0.3966767606084474 0 0 0 0 0 82:1 193:1 301:1 311:1 346:1 
0 0 0 0.3618968593825097 0 0 0 0 0:1 59:1 214:1 305:1 347:1 348:1 349:1 
0 0 0.2679506892799499 0 0 0 0 0 30:1 108:1 193:1 247:1 354:1 355:1 356:1 
0.09246258704664123 0 0.3688655140083358 0 0 0 0 0 92:1 93:1 148:1 162:1 346:1 362:1 363:1 364:1 
0 0.2222250546574162 0 0 0 0 0 0 19:1 59:1 287:1 365:1 366:1 367:1 368:1 
0 0 0.2388725215188693 0 0 0 0 0 120:1 377:1 378:1 379:1 380:1 381:1 382:1 
0.6068930867239875 0 0.04281354918798634 0 0 0 0 0 60:1 62:1 65:1 386:1 387:1 388:1 389:1 390:1 391:1 
0 1 0 0 0 0 0 0 265:1 
0.1331309832605929 0.1793204663000128 0 0 0 0 0 0 141:1 404:1 405:1 
0 0.1193098463703738 0 0 0 0 0 0 25:1 40:1 181:1 327:1 355:1 412:1 413:1 414:1 415:1 416:1 417:1 418:1 
0 0 0 0 0.1181854295979944 0 0 0 120:1 327:1 423:1 424:1 425:1 426:1 
0.02581184458128208 0 0 0 0 0 0 0 92:1 127:1 146:1 162:1 436:1 437:1 438:1 439:1 440:1 441:1 442:1 443:1 
0 0 0 0.1403224228690009 0 0 0 0 153:1 173:1 457:1 458:1 459:1 
0 0.4171644528097673 0 0 0 0 0 0 355:1 470:1 471:1 472:1 
1 0 0 0 0 0 0 0 28:1 39:1 40:1 48:1 72:1 248:1 254:1 473:1 
0 0 0 0.3902895203459676 0 0 0 0 46:1 73:1 451:1 488:1 489:1 
0 0 0.2480844877249715 0 0 0 0 0 30:1 39:1 54:1 116:1 189:1 226:1 298:1 484:1 492:1 
0.0861254039258547 0 0 0 0 0 0 0 82:1 415:1 417:1 504:1 505:1 506:1 507:1 
0.2059567681579825 0 0 0 0 0 0 0 61:1 181:1 196:1 328:1 417:1 514:1 515:1 516:1 517:1 
0.7732777281804167 1 0 0 0 0 0 0 522:1 
0 0 0 0 0.07280591783082209 0 0 0 13:1 528:1 529:1 530:1 531:1 532:1 
0 0 0 0 0.1943381137326356 0 0 0 413:1 474:1 543:1 544:1 545:1 
0.1680288296613589 0.3980143227418753 0 0 0 0 0 0 33:1 241:1 508:1 552:1 553:1 554:1 555:1 
0 0 0 0.1116969774571018 0 0 0 0 556:1 557:1 558:1 
0 0.3976307659492898 0 0 0 0 0 0 560:1 561:1 562:1 563:1 
0 0.2579815408535839 0 0 0 0 0 0 565:1 566:1 
0.3140164264930327 0 0 0 0 0 0 0 200:1 247:1 361:1 524:1 567:1 568:1 
0.06362870197778091 0 0 0 0 0 0 0 305:1 321:1 381:1 382:1 575:1 576:1 577:1 578:1 
0.2286241711877071 0 0 0 0 0 0.1028810880032529 0 16:1 132:1 135:1 564:1 585:1 586:1 587:1 
0.07878894196442943 0 0 0 0 0 0 0 25:1 50:1 574:1 596:1 597:1 
0 0 0 0.3194826289296822 0 0 0 0 4:1 463:1 599:1 
0 1 0 0 0 0 0 0 15:1 122:1 590:1 605:1 
0.4963343384912851 0 0 0 0 0 0 0 258:1 505:1 
0 0 0 0.1586268493593772 0.1488645994715786 0 0 0 3:1 88:1 285:1 315:1 344:1 454:1 608:1 609:1 
0 0.1195232768731499 0 0 0 0 0 0 19:1 25:1 103:1 173:1 397:1 574:1 621:1 622:1 623:1 624:1 
0 0 0 0 0 0 0.1813510430700164 0 15:1 138:1 212:1 506:1 654:1 
0 0 0.1905671759251731 0 0 0 0 0 391:1 663:1 664:1 665:1 666:1 667:1 668:1 
0.4148762038815694 0 0 0.1673234954428534 0 0 0 0 0:1 21:1 61:1 141:1 181:1 334:1 463:1 571:1 627:1 669:1 670:1 671:1 672:1 673:1 
1 0 0 0 0 0 0 0 59:1 454:1 676:1 
0.08466706300702601 0.2459288046685159 0.2332938572055734 0 0 0 0 0 88:1 108:1 247:1 323:1 479:1 679:1 680:1 
0.4490008917774581 0 0 0 0 0 0 0 82:1 397:1 681:1 682:1 
0 0 0 0 0.2796982555107381 0 0 0 73:1 125:1 517:1 644:1 656:1 673:1 683:1 684:1 
1 0 0 0 0 0 0 0 54:1 690:1 691:1 692:1 
0.1683004362148544 0 0 0 0 0 0 0 395:1 463:1 693:1 694:1 
0.2412251001434597 0 0 0 0 0 0 0 25:1 73:1 140:1 216:1 240:1 308:1 503:1 695:1 696:1 
0 0 0 0.1577361272808593 0 0 0 0 181:1 197:1 492:1 529:1 697:1 
0.1609334090366189 0 0 0 0 0 0 0 65:1 120:1 121:1 233:1 390:1 479:1 703:1 704:1 
0.05032493854822234 0 0 0 0 0 0 0 7:1 25:1 73:1 132:1 248:1 251:1 284:1 294:1 356:1 710:1 711:1 712:1 713:1 714:1 715:1 
0.6480871404122842 0 0 0 0 0 0 0 107:1 141:1 287:1 719:1 
0 0 0 0 0.1713535030450131 0 0 0 338:1 389:1 528:1 536:1 731:1 
0.3246772206619939 0 0 0 0 0 0 0 115:1 728:1 729:1 732:1 
0.3979490979744021 0 0 0 0 0 0 0 82:1 138:1 462:1 735:1 736:1 
0.4111895978545267 0 0 0 0 0 0 0 217:1 737:1 738:1 
0.3018110434827137 0 0.3611861856137812 0.6325300669246047 0 0 0 0 155:1 372:1 747:1 748:1 
0.3244627256890139 0 0.3019046695245182 0 0 0 0 0 16:1 141:1 144:1 479:1 722:1 761:1 762:1 763:1 764:1 
0.1512797308297578 0 0.07390868547774761 0 0 0 0 0 35:1 108:1 287:1 619:1 696:1 765:1 766:1 767:1 768:1 769:1 770:1 
0 0 0.1594788444859683 0 0 0 0 0 47:1 65:1 141:1 244:1 294:1 534:1 570:1 771:1 772:1 
0.6674391076846317 0 0 0 0 0 0.1002732041838168 0 15:1 30:1 683:1 
0.8697343302507557 0 0 0 0 0 0 0 420:1 429:1 584:1 787:1 
0 0 0 0.120963061929939 0 0 0 0 25:1 136:1 783:1 799:1 
0 0 0.3017307701886393 0 0 0 0 0 7:1 412:1 529:1 
0 0.1631228735653169 0 0 0.2013850529306836 0 0 0 39:1 116:1 137:1 181:1 202:1 684:1 696:1 802:1 803:1 804:1 
0.1811165144923951 0 0 0 0 0 0 0 15:1 24:1 45:1 248:1 412:1 574:1 738:1 787:1 807:1 808:1 809:1 
0 0 0 0.3545851614893611 0 0 0 0 112:1 244:1 559:1 815:1 816:1 
0 0.2009322197543039 0 0 0 0 0 0 72:1 167:1 248:1 479:1 527:1 623:1 736:1 822:1 823:1 824:1 
0 0 0.5758785421394381 0 0 0 0 0 64:1 166:1 826:1 
0.6231685677060925 0 0 0 0 0 0 0 3:1 50:1 65:1 258:1 597:1 726:1 837:1 838:1 839:1 
0 0 0.1002347352007137 0.1776343481703989 0 0 0 0 39:1 88:1 114:1 120:1 197:1 267:1 320:1 337:1 415:1 546:1 733:1 840:1 841:1 842:1 
0 0 0 0.07929561441262428 0 0 0 0.1066315725552093 3:1 13:1 82:1 102:1 244:1 415:1 770:1 
0 0 0 0 0 0.4592956621981896 0 0 54:1 154:1 683:1 849:1 
0.2919480738635769 0 0 0 0 0 0 0 181:1 562:1 850:1 851:1 
0.4271335777701774 0 0 0 0 0 0 0 12:1 121:1 479:1 823:1 
0 0 0 0 0 0.07574362894700636 0 0 25:1 244:1 394:1 727:1 762:1 777:1 863:1 864:1 865:1 866:1 
0 0 0 0.4906065741102761 0 0 0 0 335:1 858:1 868:1 
1 0 0 0 0 0 0 0 30:1 191:1 470:1 551:1 871:1 872:1 
0 0.456959646198137 0 0 0 0 0 0 138:1 248:1 479:1 484:1 555:1 779:1 873:1 874:1 
0.2782976227603722 0 0.2703950787865578 0 0 0 0 0 229:1 354:1 685:1 
0 0 0.2788180217074788 0 0 0 0 0 83:1 140:1 673:1 683:1 882:1 883:1 
0 0 0 0 0 0.3034257505098055 0 0 92:1 106:1 243:1 327:1 884:1 
0 0.1536039773002531 0 0 0 0 0 0 7:1 62:1 138:1 179:1 390:1 536:1 863:1 885:1 886:1 
0 0 0 0.1155978660407433 0 0 0 0 25:1 50:1 221:1 708:1 890:1 891:1 
0 0.2583704263467052 0 0 0 0 0 0 59:1 195:1 529:1 892:1 893:1 894:1 895:1 
0.10721238960084 0 0 0 0 0 0 0 17:1 39:1 133:1 463:1 698:1 899:1 900:1 901:1 
1 0 0 0 0 0.0762565776802893 0 0 65:1 141:1 293:1 294:1 306:1 726:1 863:1 909:1 910:1 911:1 912:1 
0.2962601668572053 0 0 0 0 0 0 0 120:1 914:1 915:1 
0.07675977237872868 0.1007153246588201 0 0 0 0 0 0 39:1 161:1 916:1 917:1 918:1 919:1 920:1 
0 0 0.1656997791732244 0 0 0 0 0 54:1 120:1 382:1 505:1 529:1 793:1 
0 0 0 0.1061084404287193 0 0 0 0 90:1 294:1 498:1 608:1 625:1 931:1 
0.3671629156600681 0.3812294115738212 0 0 0 0 0 0 30:1 141:1 318:1 420:1 907:1 932:1 936:1 937:1 
0 0.3694492435044219 0 0 0 0 0 0 701:1 749:1 868:1 
0 0 0.3846992815781219 0 0 0 0 0 404:1 496:1 
0.09280069618697669 0 0 0 0 0 0 0 294:1 320:1 479:1 564:1 585:1 940:1 941:1 
0 0 0.4870978649083803 0 0 0 0 0 495:1 
0 0 0.1392842922830905 0 0 0 0 0 17:1 114:1 381:1 914:1 944:1 945:1 
0 0 0 0 0 0.09359576223329685 0 0 12:1 35:1 38:1 161:1 348:1 365:1 474:1 762:1 946:1 947:1 948:1 949:1 950:1 
0 0 0 0.1327293700729889 0 0 0 0 34:1 318:1 381:1 423:1 678:1 755:1 953:1 954:1 955:1 956:1 957:1 
0.6392696260107056 0 0 0 0 0 0 0 229:1 767:1 858:1 959:1 
0.1542344035209246 0 0 0 0 0 0 0 22:1 191:1 362:1 559:1 565:1 
0 0 0.3410286317716257 0 0 0 0 0 138:1 967:1 968:1 
1 0 0 0 0 0 0 0 618:1 670:1 
0 0 0 0 0 0 0.2352555010788254 0 28:1 254:1 
1 0.4899974006182668 0 0 0 0 0 0 27:1 265:1 335:1 407:1 416:1 722:1 791:1 897:1 
0.667506961166178 0 0 0 0 0 0 0 973:1 
0.09667911973494671 0 0 0 0 0 0 0 39:1 136:1 162:1 
0.1141971162473921 0 0 0.2610725440898798 0.1141852803832466 0 0 0 4:1 443:1 476:1 562:1 748:1 976:1 
0 0 0.1451716578685398 0 0 0 0 0 244:1 404:1 432:1 981:1 982:1 
0.2221012256023067 0 0 0 0 0 0 0 107:1 114:1 137:1 179:1 287:1 389:1 414:1 536:1 765:1 986:1 987:1 988:1 
0 0.02187958936039681 0 0 0 0 0 0 989:1 990:1 991:1 
0 0 0.5505775191395916 0 0 0 0 0 394:1 479:1 843:1 992:1 
0.587669857536248 0 0 0 0 0 0 0 15:1 181:1 608:1 994:1 
0.2591265371585239 0 0 0 0 0 0.1538847877101607 0 17:1 21:1 301:1 562:1 791:1 819:1 947:1 1000:1 1001:1 1002:1 
0 0 0 0 0 0.0991943549323772 0 0 19:1 22:1 83:1 141:1 248:1 250:1 424:1 464:1 1011:1 1012:1 
0.87850461867045 0 0 0 0 0 0 0 341:1 1013:1 
1 0 0.7367964680633524 0 0 0 0 0 217:1 248:1 451:1 577:1 857:1 
0 0.5949855246852118 0 0 0 0 0 0 324:1 1014:1 
0 0 0 0.1734713857400614 0 0 0 0 114:1 248:1 407:1 479:1 
0.7461353327159036 0 0 0.4445395319424685 0 0 0 0 1022:1 
0.09134254200656072 0 0 0 0.1660318561862081 0 0 0 275:1 924:1 1027:1 1028:1 1029:1 
0 0 1 0 0 0 0 0 658:1 
0.6582561078948109 0 0 0 0 0 0 0 50:1 1038:1 1039:1 1040:1 
0.2607423919602747 0 0 0 0 0 0 0 161:1 216:1 330:1 743:1 1041:1 1042:1 
1 0 0 0 0 0 0.2152484732354276 0 4:1 38:1 75:1 132:1 141:1 577:1 
0.2984330889880856 0 0 0 0.1869642523033646 0 0 0 75:1 116:1 127:1 146:1 162:1 437:1 442:1 604:1 684:1 1049:1 
1 0 0 0 0 0 0 0 534:1 1050:1 1051:1 
0 0 0.2057533937807684 0 0 0 0 0 367:1 457:1 463:1 1060:1 
0.4259088425952987 0 0 0 0 0 0 0 153:1 1066:1 1067:1 1068:1 
0 0 0 0.2489890691395596 0 0 0 0 325:1 451:1 962:1 
0 1 0.1736350166730942 0 0 0 0 0 224:1 307:1 966:1 1081:1 
0 0.02378602788112233 0 0 0 0 0 0 140:1 315:1 376:1 524:1 571:1 586:1 714:1 869:1 939:1 1082:1 1083:1 
0 0.1014314869352275 0 0 0 0 0 0 40:1 82:1 140:1 248:1 287:1 555:1 724:1 900:1 
0.1040660091598121 0 0 0 0 0 0 0 59:1 72:1 160:1 189:1 689:1 1094:1 1095:1 
0 0.02636015409884163 0.4740290142736028 0 0 0 0 0 333:1 342:1 430:1 1096:1 1097:1 
0 0 0 0 0 0.139878751487753 0 0 19:1 61:1 65:1 120:1 417:1 538:1 555:1 595:1 845:1 
1 0 0.5779218925090001 0 0 0 0 0 52:1 191:1 248:1 302:1 490:1 813:1 856:1 939:1 
0.5828765385594571 0 0.1644382485116471 0 0 0 0 0 40:1 87:1 1055:1 1099:1 
0.1188942604038089 0 0 0.07437162146095079 0 0 0.03811795094264281 0 15:1 242:1 308:1 335:1 507:1 577:1 805:1 1104:1 1105:1 1106:1 1107:1 
0.1566698619034397 0 0 0 0 0 0 0 38:1 65:1 135:1 193:1 1113:1 1114:1 
1 0 0 0 0 0 0 0 73:1 284:1 311:1 
0 0 0 0.0565334374446719 0 0 0 0 9:1 13:1 34:1 61:1 108:1 114:1 306:1 430:1 440:1 586:1 673:1 
0 0 0.6789059955705482 0 0 0 0 0 1045:1 1123:1 
0 0.367776887918483 0 0 0 0 0 0 138:1 404:1 796:1 1080:1 1126:1 1127:1 1128:1 
0.1389478364398254 0 0 0 0 0 0 0 30:1 409:1 738:1 1136:1 1137:1 
0.5808149970332968 0 0.2002896320619799 0 0 0 0 0 82:1 1140:1 
0 0.1499334486769163 0.297888044046062 0 0 0 0 0 161:1 169:1 181:1 288:1 690:1 868:1 872:1 953:1 1084:1 1143:1 
0 0 0.1537269684760167 0 0 0 0 0 153:1 311:1 533:1 742:1 1017:1 
1 0 0 0 0 0 0 0 284:1 508:1 1144:1 1145:1 
0 0 0 0.2254682772157383 0 0 0 0 19:1 248:1 305:1 315:1 349:1 354:1 383:1 552:1 569:1 813:1 1115:1 1146:1 1147:1 1148:1 
0.07938417542906259 0 0.147106987223342 0 0 0 0 0 19:1 22:1 59:1 66:1 109:1 246:1 564:1 676:1 752:1 833:1 1152:1 
0 0.09481308205399612 0 0 0 0 0 0 3:1 7:1 138:1 195:1 954:1 1105:1 1153:1 1154:1 
0 0 1 0 0 0 0 0 474:1 795:1 823:1 1157:1 
0 0 0 0 0 0 0.3553317863274253 0 17:1 238:1 1010:1 1044:1 1104:1 1160:1 
0 0 0 0.32405127546501 0 0 0 0 30:1 280:1 304:1 966:1 
0 0 0 0 0.3205869658610416 0 0 0 96:1 120:1 308:1 335:1 342:1 474:1 477:1 562:1 640:1 1164:1 
0 0 0 0.1166249480223657 0 0 0 0 40:1 106:1 281:1 453:1 571:1 779:1 1171:1 
0 0 0.2900487491253341 0 0 0 0 0 2:1 
0 0.06125555118296375 0 0 0 0 0 0 66:1 308:1 378:1 673:1 876:1 966:1 1172:1 
0 0.1164241203337628 0 0 0 0 0 0 25:1 50:1 574:1 611:1 1173:1 1174:1 
0 0.08988359834472222 0 0 0 0 0 0 34:1 61:1 293:1 294:1 349:1 360:1 389:1 415:1 536:1 1017:1 
1 0 0 0 0 0 0 0 1045:1 
0.6371448206732439 0 0.1948478358545643 0 0 0 0 0 38:1 59:1 88:1 415:1 722:1 942:1 1047:1 1181:1 
0.3868453351773069 0 0 0 0 0 0 0 279:1 281:1 472:1 716:1 
0 0.4381561692540595 0 0 0 0 0 0 149:1 429:1 506:1 508:1 1111:1 1182:1 
0.02854324671963111 0.1203068425210939 0 0 0 0 0 0 195:1 211:1 214:1 248:1 328:1 334:1 485:1 498:1 890:1 
0 0.3214561760086513 0 0.4653618362595743 0 0 0 0 15:1 106:1 309:1 366:1 367:1 533:1 946:1 1111:1 
0 0 0.2842396879467322 0 0 0 0 0 85:1 246:1 330:1 392:1 411:1 723:1 1142:1 1184:1 
0 0 0 0.3812782192048486 0 0 0 0 72:1 248:1 948:1 
0 0.1763993818780106 0 0 0 0 0 0 244:1 312:1 932:1 942:1 1158:1 1190:1 1191:1 1192:1 
0 0.4561289767354796 0.2719409794361317 0 0 0 0 0 21:1 195:1 211:1 415:1 546:1 1193:1 1194:1 1195:1 1196:1 
0 0 0 0.2935014808097466 0 0 0 0 230:1 430:1 724:1 
0.2152302235577973 0 0 0 0 0 0 0 48:1 227:1 1205:1 1206:1 1207:1 1208:1 
0.5287652198590073 0 0 0 0 0 0 0 72:1 206:1 240:1 248:1 343:1 381:1 382:1 534:1 595:1 1213:1 
0 1 0 0 0 0 0 0 555:1 803:1 
0.2790569342355318 0 0 0 0 0 0 0 7:1 30:1 279:1 287:1 371:1 406:1 413:1 478:1 577:1 896:1 1214:1 
0.1816252712644794 0 0.231265768089931 0.1068119393477526 0 0 0.08540915773141437 0 52:1 195:1 389:1 534:1 587:1 618:1 828:1 1085:1 1105:1 1215:1 1216:1 1217:1 1218:1 
0.5862242250755205 0 0 0 0 0 0 0 0:1 437:1 670:1 
0.327091393292423 0.1830417893386752 0 0 0 0 0 0 15:1 72:1 73:1 116:1 240:1 404:1 485:1 896:1 1111:1 1228:1 
0.3876763760781715 0 0 0 0 0 0 0 132:1 310:1 619:1 1231:1 
0.2910848133486003 0 0 0 0 0 0 0 421:1 559:1 779:1 1070:1 1232:1 1233:1 
0.6315877103164559 0 0 0.1285771115643896 0 0 0 0 39:1 134:1 302:1 415:1 1234:1 
0 0 0 0 0 0 0.1598691389284262 0 206:1 349:1 367:1 676:1 742:1 784:1 790:1 896:1 990:1 1235:1 
0 0 0 1 0 0 0 0 27:1 39:1 136:1 214:1 1092:1 1231:1 
0 0.6958187162838168 0 0 0 0 0 0 103:1 457:1 534:1 830:1 1236:1 
1 0 0 0 0 0 0 0 284:1 
0.3384994996270609 0 0 0 0 0 0 0 256:1 287:1 
0 0 0 0 0.2344810992888842 0 0 0 884:1 1114:1 1150:1 1243:1 1244:1 
0 0 0 0 0.1612760853792728 0 0 0 16:1 106:1 324:1 673:1 752:1 896:1 1113:1 1209:1 
0 0 0.1172338708757966 0 0 0 0 0 3:1 402:1 611:1 924:1 951:1 985:1 1069:1 1096:1 1247:1 
0 0 0.09100893939177188 0 0 0 0 0 30:1 38:1 318:1 433:1 583:1 671:1 800:1 946:1 1249:1 1250:1 
0.8439845104444473 0 0 0 0 0 0 0 135:1 153:1 236:1 355:1 618:1 623:1 801:1 1251:1 
0.2855035340784359 0 0 0 0 0 0 0 241:1 1185:1 1254:1 
0.2281710782032754 0 0 0 0 0.1045256646969863 0 0 322:1 414:1 476:1 1167:1 1266:1 1267:1 1268:1 
0 0 0 0.11154661967842 0 0 0 0 4:1 39:1 61:1 73:1 413:1 1273:1 1274:1 
0 0 0 0.2256154034029491 0 0 0 0 56:1 161:1 176:1 294:1 379:1 625:1 714:1 803:1 990:1 1001:1 
0.2881168428064126 0 0 0 0 0 0 0 168:1 244:1 279:1 534:1 736:1 1197:1 
0.330432660668815 0.292741198810115 0 0 0 0 0 0 479:1 604:1 878:1 896:1 1278:1 1279:1 
0.4218449810305742 0 0 0 0 0.0686670831359648 0 0 7:1 60:1 327:1 389:1 394:1 637:1 658:1 722:1 795:1 818:1 837:1 838:1 863:1 886:1 1260:1 
0 0 0 0 0.1052413418997316 0 0 0 39:1 226:1 305:1 367:1 568:1 1199:1 1282:1 
0 0.09931002855367586 0 0 0 0 0 0 19:1 65:1 141:1 211:1 233:1 305:1 408:1 412:1 494:1 541:1 555:1 704:1 1190:1 1287:1 
0.135683561825233 0 0 0 0 0 0 0 64:1 84:1 92:1 166:1 179:1 779:1 960:1 
0.4347090651034538 0 0 0 0 0 0 0 26:1 256:1 296:1 305:1 485:1 551:1 582:1 602:1 757:1 1288:1 
0 0.0708491392937857 0 0 0 0.07684732509897262 0 0 19:1 136:1 423:1 461:1 1248:1 1289:1 1290:1 
0.129548447340208 0 0.4245003772147151 0 0 0 0 0 5:1 88:1 138:1 164:1 232:1 479:1 723:1 913:1 968:1 1032:1 1291:1 1292:1 
0 0.4064617179048905 0 0 0 0 0 0 105:1 324:1 723:1 753:1 1297:1 
0.7993465271113307 0 0 0 0.2155137192548168 0 0 0 34:1 240:1 265:1 324:1 766:1 1299:1 
0 0.3288586658698298 0 0 0 0 0 0 73:1 100:1 181:1 242:1 258:1 305:1 327:1 412:1 1158:1 1300:1 
0.432020093719291 0 0 0 0 0 0 0 142:1 562:1 573:1 684:1 1304:1 1306:1 
1 0 0 0 0 0 0 0 306:1 768:1 
1 0 0 0 0 0 0 0 73:1 236:1 1203:1 
0.285404498726612 0.8725610507869105 0 0 0 0 0 0 1:1 770:1 850:1 1269:1 
0 0.09592414629961341 0 0 0 0 0 0 32:1 108:1 114:1 120:1 140:1 177:1 306:1 342:1 562:1 601:1 1024:1 1095:1 1314:1 
0.142431461190251 0 0 0 0 0 0 0 22:1 302:1 948:1 
0 0 0 0 0 0.1470861710303144 0 0 19:1 145:1 423:1 474:1 795:1 1318:1 
0.2063816384060258 0 0.117664501333662 0 0 0 0 0 34:1 179:1 189:1 413:1 479:1 507:1 534:1 619:1 770:1 772:1 1327:1 1328:1 1329:1 1330:1 1331:1 1332:1 
0 0 0 1 0 0 0 0 484:1 
0.2289925380420657 0 0 0 0 0 0 0 140:1 177:1 323:1 382:1 429:1 1152:1 
0.9534407197933801 0 0 0 0 0 0 0 15:1 660:1 1164:1 
1 0 0 0 0 0 0 0 82:1 563:1 1321:1 
0.004590447639706591 0 0 0 0 0.1092572031035031 0 0 35:1 73:1 97:1 132:1 893:1 1107:1 1125:1 1320:1 1329:1 
0 0.5794474513876863 0 0 0 0 0 0 145:1 524:1 1341:1 
0.0968771155988082 0.03077014480901633 0 0 0 0 0 0 65:1 86:1 96:1 254:1 275:1 819:1 1342:1 1343:1 
0.528920461726339 0 0 0 0 0 0 0 17:1 65:1 266:1 307:1 551:1 900:1 
0.5290855825092677 0 0 0 0 0 0 0 3:1 13:1 102:1 342:1 404:1 474:1 586:1 779:1 783:1 1344:1 
0 0.1583459566603956 0 0 0 0 0 0 28:1 551:1 932:1 1346:1 1347:1 1348:1 
0.0536167060635811 0 0 0 0 0 0 0 59:1 135:1 203:1 340:1 563:1 582:1 975:1 977:1 1349:1 1350:1 
0.2525390786977046 0 0 0 0 0 0 0 40:1 407:1 477:1 552:1 
0.3761068770827873 0 0 0 0 0 0 0 34:1 63:1 65:1 293:1 294:1 988:1 1328:1 1356:1 
0 0 0 0.1569458289132065 0 0 0 0 28:1 46:1 380:1 529:1 888:1 1147:1 
0 0.2487064328052008 0 0 0 0 0 0 779:1 893:1 1359:1 
0 0 0 0 0 0.07278081820920138 0 0 19:1 252:1 311:1 321:1 371:1 623:1 678:1 1080:1 1236:1 1360:1 
0 0.1455655606278884 0 0 0 0 0 0 22:1 32:1 83:1 95:1 116:1 291:1 317:1 626:1 819:1 1225:1 1363:1 
0 0 0 0 0 0.130624853882307 0 0 39:1 52:1 179:1 254:1 724:1 728:1 844:1 872:1 1365:1 
0 0 0 1 0 0 0 0 22:1 1254:1 
0 0 0 0.06944003475597313 0 0 0 0 48:1 238:1 294:1 305:1 407:1 408:1 474:1 525:1 625:1 
0 0 0 0 0 0 0.3822265094076138 0 413:1 508:1 
0 0.3681807763905937 0 0 0 0 0 0 30:1 400:1 1289:1 1304:1 
1 0 0 0 0 0 0 0 207:1 601:1 1221:1 
0 0.0776348719358347 0 0 0 0 0 0 19:1 179:1 320:1 569:1 581:1 770:1 
0 0 0 0.04985604793640004 0 0 0 0 244:1 297:1 611:1 704:1 792:1 898:1 1194:1 1384:1 
0.5357682959190485 0 0.1645902235306885 0 0 0 0 0 120:1 240:1 275:1 525:1 703:1 795:1 896:1 1016:1 1287:1 1385:1 
0.1937096320306917 0 0 0 0 0 0 0 38:1 242:1 528:1 766:1 1078:1 1162:1 1256:1 
0.3810148334060827 0 0 0 0 0 0 0 342:1 361:1 838:1 934:1 956:1 982:1 1386:1 
1 0.1758087927226322 0 0 0 0 0 0 34:1 587:1 696:1 1236:1 
0 0 0 0 0.1130405071747249 0 0 0 59:1 106:1 135:1 137:1 138:1 179:1 474:1 475:1 824:1 1106:1 
0 0.07553977024760505 0 0 0 0 0 0 183:1 315:1 335:1 562:1 603:1 1388:1 
0 0.6039419047705341 0 0 0 0 0 0 181:1 1389:1 
0.3119244255612542 0 0 0 0 0 0 0 456:1 805:1 933:1 1021:1 
0 0 0.08239759322878343 0 0 0 0 0 17:1 941:1 1390:1 1391:1 1392:1 
0 0.8466913446066129 0 0.6764389531815548 0 0 0 0 105:1 309:1 775:1 
1 0 0 0 0 0 0 0 50:1 324:1 
0 0 0 0.4738943478600868 0 0 0 0 177:1 474:1 534:1 626:1 
0 0 0 0 0.2411381081969447 0 0 0 26:1 189:1 371:1 529:1 
1 0 0 0 0 0 0 0 203:1 
0.3182413329088596 0 0 0 0 0 0 0 15:1 132:1 135:1 150:1 381:1 382:1 922:1 
0 0.2958721097880589 0 0 0 0 0 0 31:1 48:1 114:1 248:1 518:1 
0.2010311474156803 0.241714258366635 0 0 0 0 0 0 25:1 114:1 248:1 1303:1 1400:1 1401:1 
0.608384674542595 0 0 0 0 0 0 0 65:1 72:1 320:1 460:1 479:1 492:1 736:1 1087:1 
0 0.8919466622444394 0 0 0 0 0 0 25:1 676:1 1293:1 
0 0 0 0 0.1910710021646971 0 0 0 50:1 272:1 312:1 429:1 742:1 
0.70344765432434 0 0 0 0 0 0 0 25:1 34:1 38:1 39:1 72:1 123:1 
0 0.3115123119334235 0 0 0 0 0.1041402178933627 0 7:1 114:1 146:1 327:1 508:1 1083:1 1413:1 
0.09894535671051721 1 0.7779549785342547 0 0 0 0 0 324:1 534:1 635:1 1394:1 
0 0 0.7889753550023231 0 0 0 0 0 28:1 193:1 247:1 
0 0 0 0.4622084777878605 0 0 0 0 65:1 344:1 1087:1 1096:1 
1 0 0 0 0 0 0 0 39:1 527:1 950:1 
0 0 0.579379440361818 0 0 0 0 0 63:1 82:1 138:1 590:1 
0 0.1649098520139989 0 0 0 0 0 0 190:1 379:1 428:1 529:1 557:1 793:1 1418:1 
0 0 1 0 0 0 0 0 15:1 82:1 389:1 536:1 1157:1 1398:1 
0 0 0 0.3200597593843783 0 0 0 0 4:1 38:1 287:1 627:1 1424:1 
0 0.2534103320768151 0 0 0 0 0 0 16:1 948:1 1425:1 
1 0 0 0 0 0 0 0 87:1 463:1 1426:1 
0 0 0.561532559193761 0 0.3447832414526528 0 0 0 217:1 238:1 324:1 714:1 1054:1 1427:1 1428:1 
1 0.1871170624481162 0 0 0 0 0 0 9:1 241:1 458:1 1071:1 
0.4192383319485361 0 0 0 0 0 0 0 311:1 1411:1 
0 0.2301890094603362 0 0 0 0 0 0 114:1 604:1 817:1 1051:1 
0 0 0 0 0 0.5741405930173802 0 0 76:1 106:1 568:1 
0 0.6845660395061429 0 0 0 0 0 0 248:1 474:1 663:1 
0 0 0 0.7740623791634147 0 0 0 0 578:1 
0.3348774371074764 0 0 0 0 0 0 0 190:1 248:1 475:1 494:1 534:1 819:1 
0 0.6345872512789462 0 0 0 0 0 0 282:1 367:1 977:1 
0 0.3738225466314273 0 0 0 0 0 0 320:1 327:1 1359:1 
0 0 0 0 0.2327405133874042 0 0 0 294:1 454:1 914:1 1329:1 1450:1 1451:1 1452:1 
0.4157637294543359 0 0 0 0 0 0 0 191:1 576:1 793:1 
0 0.6391044000746522 0 0 0 0 0 0 524:1 779:1 1342:1 1387:1 
0.3029543102137701 0.4050144753147881 0 0 0 0 0 0 138:1 584:1 806:1 
0.1936688585227389 0 0 0 0 0 0 0 75:1 241:1 1135:1 1355:1 1453:1 
1 0 0 0 0 0 0 0 896:1 1229:1 1390:1 
0 0.1494840658459046 0 0 0 0 0 0 555:1 764:1 876:1 1458:1 1459:1 1460:1 
0 0 0 0.7830031408265223 0 0 0 0 1092:1 
0.6242049286032396 0 0 0 0 0 0 0 14:1 76:1 96:1 1465:1 1466:1 
0.7785742467389942 0 0 0.1489398665627448 0 0 0 0 72:1 166:1 240:1 415:1 598:1 889:1 
0 0 0 0.4329068061991319 0 0 0 0 39:1 287:1 376:1 584:1 
0.3694655852066197 0 0 0 0 0 0 0 102:1 106:1 217:1 433:1 558:1 1138:1 
0 0.3953414521928789 0 0 0 0 0 0 103:1 194:1 275:1 389:1 479:1 536:1 774:1 786:1 1157:1 
0.864222830135711 0 0 0.2888398958823317 0 0 0 0 389:1 534:1 551:1 577:1 777:1 1085:1 
0.2106509778996608 0 0 0 0 0 0 0 114:1 191:1 248:1 404:1 407:1 474:1 1472:1 
0.1260866665436108 0 0 0 0 0 0 0 173:1 804:1 1141:1 1156:1 1281:1 1473:1 1474:1 
0 0 0 0 1 0 0 0 76:1 259:1 523:1 813:1 1114:1 
0.6430689484844859 0 0 0.7095261481371278 0 0 0 0 65:1 66:1 121:1 982:1 1477:1 
0.5269591461757108 0 0.08992588380606308 0 0 0 0 0 309:1 379:1 573:1 982:1 1148:1 1319:1 1480:1 
0 0 0.3009221805461528 0 0 0 0 0 33:1 61:1 132:1 135:1 309:1 441:1 546:1 711:1 1235:1 1481:1 
0 0 0.3273992940987758 0 0 0 0 0 23:1 100:1 415:1 
0 0.3555822031505801 0 0 0 0 0 0 189:1 321:1 492:1 1221:1 
0 0 0 0 0 0 0.2251973447937857 0 15:1 132:1 135:1 269:1 706:1 889:1 1016:1 1060:1 
0 0.2093454663878107 0 0 0 0 0 0 456:1 457:1 555:1 825:1 1171:1 1483:1 
0.6282860181862695 0 0 0 0 0 0 0 15:1 102:1 138:1 474:1 797:1 817:1 951:1 1321:1 
0.09794583253564812 0 0 0 0 0 0 0 72:1 114:1 191:1 1254:1 1256:1 
0.6147389178639527 0 0 0 0 0 0 0 408:1 525:1 1426:1 
0 0 1 0 0 0 0 0 659:1 660:1 762:1 1362:1 
0.3487206482164336 0 0 0 0 0 0 0 222:1 618:1 
1 0 0 0 0 0 0 0 275:1 930:1 
0 0 0 0 0 0.3331593282631746 0 0 54:1 141:1 378:1 1283:1 
0 0 0.8598692707702961 0 0.4766776561479164 0 0 0 1063:1 
1 0 0 0 0 0 0 0 15:1 
0 0.5361964818410019 0 0 0 0.1699884742725172 0 0 181:1 305:1 656:1 680:1 
0 0 0.2183680640797935 0 0 0 0 0 435:1 463:1 568:1 952:1 1500:1 
0 1 0 0 0 0 0 0 141:1 389:1 536:1 1298:1 
0 0.7588816249891817 0 0 0 0 0 0 962:1 1501:1 
0 0 0 0.2667952246478779 0 0 0 0 351:1 533:1 1129:1 
0 0 0 0.2169968591734777 0 0 0 0 315:1 1087:1 1111:1 
1 0 0 0 0 0 0 0 229:1 
0.4255604237328223 0 0 0 0 0 0 0 30:1 492:1 640:1 809:1 969:1 
0.3374645422753755 0 0 0 0 0 0 0 191:1 524:1 1255:1 1319:1 1504:1 
0 0.2918295368653885 0 0 0 0.1606995040435509 0 0 169:1 648:1 1293:1 1505:1 1506:1 
0.2676937841240772 0 0 0 0 0 0 0 39:1 103:1 287:1 429:1 493:1 498:1 993:1 1092:1 
0.2405773382269236 0 0 0 0 0 0 0 531:1 573:1 835:1 
0 0 0.3365564098486091 0 0 0 0 0 11:1 183:1 275:1 752:1 
1 0 0 0 0 0 0 0 189:1 
0 0 0 0.8455294842058581 0 0 0 0 96:1 149:1 486:1 
0 0.173097192906427 0 0 0 0 0 0 61:1 248:1 335:1 922:1 1422:1 1512:1 
0 0 1 0 0 0 0 0 364:1 723:1 
0.4596358173174478 0 0 0 0 0 0 0 141:1 420:1 768:1 783:1 982:1 1281:1 1492:1 
0.186474744314589 0 0 0 0 0 0 0 38:1 206:1 
1 0 0 0 0 0 0 0 848:1 1096:1 
0.3152470650877742 0 0 0.3760968651345708 0 0 0 0.1424898827372318 482:1 1517:1 1518:1 
0 0.2156760816192466 0 0 0 0 0 0 658:1 718:1 1363:1 
0 0.2678151463023221 0 0 0 0 0 0 25:1 88:1 718:1 771:1 969:1 
0 0 0 0 0 0.09270518077322204 0 0 795:1 
0.09299668390627427 0 0 0 0 0 0 0 99:1 327:1 414:1 429:1 716:1 1526:1 
0 0 0 0 0.1996217811651222 0 0 0 39:1 305:1 491:1 
0.197083128196215 0 0 0 0 0 0 0 75:1 400:1 1033:1 1530:1 
0 0 0 0.1025291938715835 0 0 0 0 65:1 96:1 479:1 626:1 813:1 
0 0 0 0.2535819528604461 0 0 0 0 577:1 601:1 1533:1 
0.9567100934444289 0 0.04715083335212761 0 0 0 0 0 34:1 429:1 1351:1 
0.5226933066460158 0 0 0 0.07486407078401723 0 0 0 35:1 38:1 83:1 524:1 596:1 791:1 999:1 1107:1 1321:1 
0 0 0 0 0 0 0.2200117089941945 0 261:1 265:1 335:1 367:1 
0.391615325457405 0 0 0 0 0 0 0 285:1 977:1 1087:1 
0 0.7465174447199536 0 0 0 0 0 0 30:1 908:1 1431:1 
0.3696360779194559 0 0 0 0 0 0 0 728:1 
0.2699472439100762 0 0 0 0 0 0 0 161:1 191:1 252:1 804:1 1247:1 
1 0 0 0 0 0 0 0 115:1 
0 0 0 0 0 0.4785186255227513 0 0 39:1 414:1 479:1 542:1 
0 0 0 0.3144298778338342 0 0 0 0 54:1 75:1 212:1 673:1 1221:1 1274:1 
0 0 0 0 0 0.2898144243364297 0 0 38:1 88:1 990:1 
0 0 0 0 0.2060777192190507 0 0 0 321:1 524:1 529:1 
0 0 0 0 0 0 0 0.1485460037957606 87:1 191:1 
0.6042074631637688 0 0 0 0 0 0 0 114:1 252:1 366:1 395:1 856:1 1289:1 
0.7808087549373678 0 0 0 0 0 0 0 190:1 248:1 463:1 1545:1 
0.5942918980649698 0 0 0 0 0 0 0 87:1 179:1 724:1 1320:1 
0.4200533532371704 0.1096726862644188 0 0 0 0 0 0 39:1 61:1 367:1 526:1 1270:1 1483:1 1548:1 
0.6146007679765397 0 0 0 0 0 0 0 38:1 637:1 1114:1 
1 0 0 0 0 0 0 0 1221:1 
0.3225566300343365 0 0 0 0 0 0 0 145:1 183:1 986:1 1051:1 
0.3478551153420927 0 0 0 0 0 0 0 261:1 1368:1 1551:1 
0.5317655519571982 0 0 0 0 0 0 0 13:1 56:1 61:1 415:1 713:1 819:1 1552:1 
0.857568538809749 0 0.6117890850469783 0 0 0 0 0 62:1 294:1 1554:1 
1 0 0 0 0 0 0 0 109:1 308:1 1151:1 
0 0 1 0 0 0 0 0 277:1 534:1 597:1 625:1 
0.7311267452931521 0 0 0 0 0 0 0 859:1 1181:1 
0 0.1855185226552668 0 0 0 0 0 0 52:1 406:1 1125:1 1555:1 
0.1940780042696626 0 0 0 0 0 0 0 177:1 415:1 557:1 779:1 1426:1 
0 0.4625021992678271 0 0 0 0 0 0 54:1 106:1 287:1 367:1 1363:1 1485:1 
0 0.1161612804344399 0 0.09309989720719637 0 0 0 0 48:1 161:1 327:1 388:1 966:1 1123:1 1359:1 1563:1 
0.2515537512176983 0 0.08769478696185296 0 0 0 0 0 107:1 122:1 389:1 536:1 672:1 809:1 
0 0.1071873366302647 0 0 0 0 0 0 41:1 373:1 449:1 565:1 1282:1 1315:1 
0.4741931867321721 0 0 0 0 0 0 0 12:1 34:1 179:1 284:1 1266:1 1267:1 1268:1 
1 0 0 0 0 0 0 0 27:1 31:1 120:1 132:1 311:1 546:1 
0 0 0 0.1090876938043638 0 0 0 0 277:1 280:1 524:1 610:1 673:1 966:1 
0.5679347288790129 0 0 0 0 0 0 0 21:1 284:1 376:1 506:1 
0 0 1 0 0 0 0 0 394:1 479:1 657:1 
0.6565140939974043 0 0 0 0 0 0 0 226:1 324:1 716:1 809:1 
0.1288235272589348 0 0 0 0 0 0 0 414:1 574:1 1058:1 1438:1 1571:1 
0 0 0 0.1832037367197916 0 0 0 0 178:1 183:1 246:1 248:1 315:1 474:1 
0 0 0 0 0.3997041169510707 0 0 0 73:1 501:1 557:1 574:1 1466:1 
0.9285037841544839 0 0 0 0 0 0 0 922:1 1512:1 
0 0 0.2791606713513414 0 0 0 0 0 674:1 768:1 990:1 1398:1 
0.207548624395314 0 0 0 0 0 0 0 105:1 347:1 567:1 805:1 870:1 1139:1 
0 0 0.4873133004468971 0 0 0 0 0 43:1 141:1 310:1 480:1 563:1 
0.2083121095224407 0 0 0 0 0 0 0 50:1 1011:1 1453:1 
0.06843545670511629 0 0 0 0 0 0 0 96:1 111:1 463:1 604:1 1578:1 1579:1 
0 0 0 0 0 0 0.247087323925831 0 141:1 369:1 
0 0.1125437339450129 0 0 0 0 0 0 265:1 814:1 1363:1 1582:1 
1 0 0 0 0 0 0 0 19:1 106:1 327:1 534:1 619:1 1007:1 
0.1227611737514967 0 0 0 0 0 0 0 59:1 111:1 135:1 773:1 1137:1 1348:1 
0.3400886660325532 0.4747476743636923 0.2571632251592879 0 0 0 0 0 275:1 969:1 1214:1 1583:1 1584:1 
1 0 0 0 0 0 0.305216421203412 0 284:1 479:1 626:1 1321:1 
0 0.1768052316428627 0 0 0 0 0 0 35:1 672:1 841:1 
0 0 0 0.9029645655478892 0 0 0 0 34:1 121:1 305:1 833:1 1254:1 
0 0.7371056180272793 0 0 0 0 0 0 1077:1 
0.6088013893769464 0 0 0 0 0 0 0 30:1 480:1 1397:1 1592:1 
0.1257526013729776 0 0 0 0 0 0 0 13:1 179:1 782:1 
0 0 0 0 0 0.2472025495670579 0 0 154:1 1594:1 
0 0.08683994098880302 0 0 0 0 0 0 114:1 577:1 1088:1 1115:1 1596:1 
0 0 0.8349068512544767 0 0 0 0 0 766:1 1009:1 
0 0 0 1 0 0 0 0 25:1 65:1 248:1 407:1 813:1 
0 0.07948098261344302 0 0 0 0 0 0 61:1 381:1 382:1 461:1 749:1 894:1 1344:1 
0.16464819146295 0 0.1765009062012167 0 0 0 0 0 211:1 485:1 809:1 
0 0 0 0.470648345156602 0 0 0 0 136:1 252:1 599:1 969:1 1300:1 1600:1 
0 0.2212300641523257 0 0 0 0 0 0 275:1 590:1 601:1 
1 0.06384515867878451 0.4618438773407982 0 0 0 0 0 12:1 217:1 244:1 390:1 412:1 525:1 
1 0 0 0 0 0 0 0 164:1 212:1 1012:1 
0.09128756438318461 0 0 0 0 0 0 0 39:1 48:1 65:1 106:1 236:1 433:1 1080:1 1502:1 
0.3989649595667316 0 0.227027741864979 0 0 0 0 0 30:1 191:1 216:1 
0 0 0 0.1889459914384073 0 0 0 0 0:1 3:1 13:1 555:1 1604:1 
0 0 0 0.2218668862814721 0.2766729817664201 0 0 0 534:1 625:1 692:1 813:1 1211:1 
0 0 1 0 0 0 0 0 389:1 515:1 1606:1 
0 0 0 0.1505597514848544 0 0 0 0 114:1 193:1 375:1 733:1 947:1 
0 0.4001421819222388 0 0.130160116231286 0 0 0 0 40:1 461:1 462:1 527:1 713:1 
0 0.3770277851984485 0 0 0 0 0 0 9:1 96:1 557:1 1616:1 
0.1094864087310475 0 0 0 0 0 0 0 121:1 683:1 1265:1 1321:1 1621:1 
0 0 0 0.1544705157941419 0 0 0 0 5:1 287:1 354:1 1328:1 
0 1 0 0 0 0 0 0 34:1 287:1 1293:1 1622:1 
0.5392252945917511 0 0 0 0 0 0 0 673:1 728:1 961:1 1550:1 
0 0.3420927009877692 0 0.2149989575823422 0 0 0 0 109:1 197:1 1083:1 1194:1 
0.09517627389040635 0 0 0 0 0 0 0 35:1 195:1 203:1 584:1 
0 0.3283832443469669 0 0 0 0 0 0 38:1 48:1 518:1 817:1 843:1 
0 0 0.4951415878571989 0 0 0 0 0 389:1 536:1 823:1 1631:1 
1 0 0 0 0 0 0 0 238:1 285:1 
0.2602767021654409 0 0 0 0 0 0 0 73:1 158:1 258:1 302:1 1632:1 
0 0.4800702536504063 0 0 0 0 0 0 116:1 291:1 489:1 728:1 848:1 
0.4898583522081332 0 0 0 0 0 0 0 245:1 275:1 278:1 901:1 
0 0.145293713933964 0 0 0 0 0 0 61:1 108:1 248:1 555:1 
0.3495930349906725 0 0 0 0 0 0 0 1394:1 
0 0 1 0 0 0 0 0 217:1 534:1 982:1 
0 0 0 0.1336784931474811 0 0 0 0 17:1 34:1 50:1 194:1 294:1 333:1 736:1 1524:1 
0.5152766124577369 0 0 0 0 0 0 0 114:1 778:1 
1 0 0.8664365789825189 0 0 0 0 0 28:1 534:1 910:1 912:1 
0 0 0.09378694386474777 0 0 0 0 0 280:1 437:1 543:1 672:1 1538:1 
0 0.3285710161506196 0 0 0 0 0 0 19:1 335:1 344:1 400:1 457:1 599:1 
0 0 0.2151849507804632 0 0 0 0 0 15:1 478:1 673:1 1285:1 
0 0 0 0.3728922370795678 0 0 0 0 17:1 244:1 349:1 
0 0 0 0.06537468328489074 0 0.795475868493031 0 0 161:1 275:1 1344:1 
0 0 0 0 0.01905251452099591 0 0.09919855411249268 0 34:1 285:1 313:1 524:1 1639:1 
0 0 0.3742739665668261 0 0 0 0 0 277:1 280:1 358:1 717:1 1077:1 1105:1 
0 0 0 0 0 0 0 0.5574406626860298 372:1 
0 0 0.5450286647499555 0 0 0 0 0 1492:1 
0 0.3602148933099551 0 0 0 0 0 0 296:1 456:1 
0 0.7301822455114699 0 0 0 0 0 0 3:1 133:1 214:1 418:1 568:1 1643:1 
0.3429108605851455 0 0 0 0 0 0 0 40:1 373:1 539:1 573:1 835:1 1651:1 
0 0 0 0.2902964219402712 0 0 0 0 4:1 40:1 383:1 451:1 526:1 626:1 738:1 966:1 1214:1 
0 0.188120480211427 0 0 0 0 0 0 4:1 907:1 
0 0 0 0.07648666799862044 0 0 0 0 47:1 75:1 195:1 371:1 625:1 779:1 844:1 880:1 942:1 
0 0 0.323128715624255 0 0 0 0 0 1655:1 
0 0 0.6307072691327996 0 0 0 0 0 825:1 881:1 
0 0.6677180497789641 0 0 0 0 0 0.03452367282726808 3:1 19:1 105:1 120:1 277:1 280:1 306:1 407:1 423:1 590:1 770:1 1344:1 1553:1 
1 0 0 0 0 0 0 0 141:1 275:1 
0.4082950143638275 0 0 0 0 0 0 0 75:1 195:1 242:1 253:1 279:1 400:1 820:1 
0.9527423208362207 0 0.1164867773376754 0 0 0 0 0 39:1 73:1 428:1 768:1 1561:1 
0 0 0.2691286260600578 0 0 0 0 0 34:1 82:1 466:1 611:1 719:1 769:1 999:1 1658:1 
0.5578756833444909 0 0 0 0 0 0 0 21:1 593:1 
0 0 0 0.2437615922151227 0 0 0 0 116:1 183:1 195:1 202:1 242:1 519:1 985:1 1252:1 1349:1 1659:1 
0 0.2868850990582142 0 0 0 0 0 0 66:1 70:1 412:1 524:1 724:1 907:1 1661:1 
0 0 0 0 0 0.08977074212532316 0 0 87:1 248:1 483:1 764:1 847:1 1663:1 1664:1 1665:1 
0 0 0 0 0 0.1409172973701399 0 0 65:1 367:1 457:1 529:1 590:1 762:1 1666:1 
0 0 0 0 0 0.1091967626251824 0 0 65:1 224:1 496:1 587:1 834:1 1492:1 
0.9583231578746483 0 0 0 0 0 0 0 217:1 304:1 420:1 
0 0.05536582743827761 0 0 0 0 0 0 825:1 
1 0.06881470380102316 0 0 0 0.09516399365391376 0 0 54:1 137:1 217:1 277:1 327:1 1664:1 
0.9021841990311819 0 0 0 0 0 0 0 389:1 420:1 535:1 
0 0 0.8240278826694253 0 0 0 0 0 121:1 525:1 795:1 
0.1382265291307818 0 0.511622523955596 0 0 0 0 0 179:1 241:1 723:1 1059:1 
0 0 0 0.4663413484400978 0 0 0 0 88:1 108:1 133:1 141:1 224:1 248:1 625:1 968:1 
0 0.2214946719040634 0 0 0 0 0 0 48:1 52:1 417:1 1622:1 1626:1 
0 1 0 0 0 0 0 0 181:1 275:1 779:1 1457:1 
0.1720407330935821 0 0 0 0 0 0.1513104100283281 0 25:1 56:1 73:1 132:1 507:1 671:1 676:1 832:1 1156:1 
0 0 0.2771538916052529 0 0.1444457158101761 0 0 0 244:1 559:1 564:1 815:1 833:1 1450:1 
0 0 0.7477079739513203 0 0 0 0 0 599:1 660:1 708:1 1115:1 
0 0 0.1743977672667283 0 0 0.1489160356808455 0 0 173:1 673:1 719:1 752:1 834:1 1512:1 
0.1718378589655649 0 0 0 0 0 0 0 6:1 135:1 383:1 554:1 
0 0 0.1739713081785043 0 0 0 0 0 47:1 452:1 1239:1 
0 0 1 0 0 0 0 0 108:1 
0.1074814168932017 0 0 0 0.1174420235429129 0 0 0 195:1 288:1 305:1 413:1 541:1 714:1 728:1 1241:1 1681:1 1682:1 1683:1 
1 0 0 0 0 0 0 0 111:1 301:1 
0.4873304783262307 0 0 0 0 0 0 0 30:1 195:1 221:1 242:1 309:1 569:1 585:1 677:1 1286:1 
1 0 0 0 0 0 0 0 479:1 
0 0 0 0 0 0 0.06594226461364942 0 248:1 305:1 475:1 493:1 819:1 1689:1 
0.8415856347340345 0 0 0 0 0 0 0 9:1 285:1 486:1 562:1 599:1 1255:1 
0.6880755744387458 0 0 0 0 0 0 0 390:1 397:1 1693:1 
0.5901291909355 0 0 0 0 0 0 0 39:1 83:1 241:1 388:1 428:1 573:1 582:1 1368:1 
0.4030570990115562 0.05381828772260173 0 0 0 0 0 0 27:1 48:1 72:1 137:1 191:1 412:1 413:1 468:1 787:1 1698:1 
0 0 0 0 0 0 0.1035870872929648 0 39:1 156:1 240:1 309:1 315:1 327:1 493:1 779:1 819:1 
0.08456822063228674 0 0 0 0 0 0 0 88:1 294:1 407:1 738:1 932:1 
0 0 0 0.06525765698594965 0 0 0 0 244:1 349:1 553:1 714:1 767:1 982:1 1055:1 1069:1 1083:1 1702:1 
0 1 0 0 0 0 0 0 813:1 
0 0.3660749483951475 0 0 0 0 0 0 103:1 318:1 541:1 1199:1 1703:1 
0.8113219760943806 0.2452275004509983 0 0 0 0 0 0 48:1 202:1 242:1 518:1 1456:1 1706:1 
0.3947343917794841 0.3135201876399775 0 0 0 0 0 0 247:1 336:1 
0 0 0.9162336799813373 0 0 0 0 0 22:1 588:1 619:1 777:1 
0.08587371448965696 0 0 0 0 0 0 0 341:1 380:1 389:1 704:1 821:1 889:1 1129:1 1707:1 
0 0 0 0.2144853991437975 0 0 0 0 251:1 337:1 555:1 1022:1 
0 0 0.1538730777166463 0 0 0 0 0 88:1 106:1 216:1 555:1 807:1 1060:1 1389:1 
0.2077832545307555 0 0 0 0 0 0 0 400:1 691:1 
0 0 0.0893867787078009 0 0 0 0 0 34:1 462:1 563:1 1300:1 
0 0 0.4376800790659211 0 0 0 0 0 116:1 193:1 224:1 269:1 310:1 379:1 536:1 563:1 858:1 
0.4867124708223997 0 0 0 0 0.1190547465603555 0 0 281:1 680:1 808:1 991:1 
0 0 0 0 0.2302231757900935 0 0 0 9:1 183:1 287:1 305:1 441:1 474:1 625:1 673:1 966:1 
0 0 1 0 0 0 0 0 88:1 296:1 311:1 1086:1 
1 0 0 0 0 0 0 0 327:1 618:1 
0 0 0 0 0 0 0 0.02148942948852976 17:1 24:1 25:1 38:1 116:1 206:1 313:1 342:1 414:1 601:1 640:1 745:1 819:1 827:1 1109:1 1424:1 
0 0 0 0.1787830471753774 0 0 0 0 114:1 378:1 425:1 503:1 804:1 1043:1 1051:1 1178:1 
0 0.8577469466542542 0 0 0 0 0 0 33:1 34:1 128:1 1452:1 
0 0 0.04754742666778486 0 0 0 0 0 21:1 87:1 182:1 244:1 298:1 389:1 621:1 780:1 1394:1 1595:1 
0 0 0 1 0 0 0.4972472390620314 0 154:1 524:1 
0 0.3564249019984245 0.1840472538822726 0 0 0 0 0 46:1 112:1 138:1 156:1 412:1 536:1 584:1 1264:1 1560:1 
0.6625934815288441 0 0.4378689612744934 0 0 0 0 0 440:1 1014:1 1603:1 
0 0.3809255530455977 0 0 0 0 0 0 15:1 138:1 180:1 214:1 337:1 791:1 1192:1 
0 0 0 0 0 0.08405644553931238 0 0 227:1 403:1 927:1 1723:1 
0 0 0 0 0.1838997155760846 0 0 0 50:1 158:1 183:1 244:1 305:1 367:1 485:1 543:1 714:1 1590:1 
0 0 0 0.1006110390400047 0 0 0 0 23:1 50:1 272:1 274:1 312:1 315:1 429:1 450:1 742:1 952:1 1234:1 
0 0 0 0.413174791531974 0 0 0 0 102:1 651:1 1590:1 
0 0 0.07094389253220869 0 0 0 0 0 56:1 120:1 217:1 525:1 993:1 1111:1 1338:1 1493:1 1498:1 1724:1 
0.1642333172032258 0 0 0 0 0 0 0 8:1 65:1 206:1 256:1 413:1 430:1 459:1 692:1 856:1 1730:1 
0.8751339567802741 0 0 0 0 0 0 0 19:1 122:1 533:1 671:1 1252:1 
0.1749386137696197 0 0 0 0 0 0 0 65:1 161:1 309:1 367:1 
0.3262100589848841 0.05803586992933792 0 0 0 0 0 0 224:1 291:1 337:1 389:1 417:1 536:1 661:1 684:1 994:1 1140:1 1363:1 
0.05613701845970862 0 0 0 0 0.3523668150303655 0 0 39:1 40:1 64:1 65:1 114:1 248:1 407:1 444:1 507:1 670:1 1304:1 1733:1 1734:1 
0 0.1056748053998124 0 0 0 0 0 0 9:1 96:1 161:1 306:1 586:1 
0.6066631297904357 0 0 0 0 0 0 0 251:1 1739:1 
0 0 0 0 0 0 0.1560221400229379 0 65:1 154:1 349:1 406:1 1336:1 1740:1 1741:1 
0 0 0 0.50043091956724 0 0 0 0 28:1 195:1 242:1 311:1 914:1 
0 0 0.1269666791599566 0.1235795928493711 0 0 0 0 4:1 256:1 479:1 564:1 750:1 762:1 1035:1 1141:1 1187:1 1550:1 1743:1 
0.1154230745985983 0 0 0 0 0 0 0 62:1 73:1 244:1 396:1 863:1 1745:1 1746:1 1747:1 1748:1 
0 0.1223101967842151 0 0 0 0 0 0 15:1 197:1 214:1 989:1 
0 0 0.1007230731872918 0 0 0 0 0 311:1 478:1 1182:1 1197:1 1750:1 
0.2050220508775361 0 0 0 0 0 0 0 310:1 356:1 381:1 563:1 617:1 1554:1 1752:1 
1 0 0 0 0 0 0 0 302:1 315:1 640:1 670:1 811:1 819:1 898:1 
0.08636543271222893 0 0 0 0 0 0 0 27:1 75:1 114:1 145:1 160:1 177:1 238:1 306:1 762:1 1755:1 
1 0 0 0 0 0 0 0 284:1 389:1 395:1 535:1 765:1 
0 0.2248735727246488 0.3361498165010442 0 0.1331717204601368 0 0 0 48:1 92:1 337:1 394:1 491:1 518:1 764:1 809:1 825:1 982:1 1243:1 1363:1 1678:1 
0 0 1 0 0 0 0 0 379:1 534:1 
0 0 0 0.2827821155197208 0 0 0 0 375:1 733:1 1481:1 
0 0 0 0.2982400076355678 0 0 0 0 0:1 335:1 534:1 1071:1 
0.4401024175187391 0 0 0 0 0 0 0 1291:1 
0 0.3773058091811607 0 0 0 0 0 0 634:1 868:1 1288:1 
0 0 0 0 0 0 0.4113419137252849 0 577:1 983:1 
0.1012423410430952 0 0 0 0 0 0 0 102:1 986:1 1181:1 1524:1 1527:1 
0 0 0.1658024700594061 0 0 0 0 0 88:1 265:1 275:1 533:1 975:1 1525:1 
0 0 0.280691242962521 0 0 0 0 0 479:1 658:1 
0.4742400670608729 0 0 0 1 0 0 0 1302:1 
0 0 0 0 0 0 0.5424324452071012 0 115:1 626:1 
0 0.2544112213107171 0 0 0 0 0 0 23:1 107:1 389:1 412:1 414:1 536:1 913:1 1157:1 
0 0 0.3551118854355697 0 0 0 0 0 187:1 189:1 229:1 1083:1 
0 0.1713687093069006 0.1075080320943695 0 0 0 0 0 32:1 116:1 441:1 851:1 942:1 1303:1 
0 0 0 0 0.1383363355077788 0 0 0 30:1 38:1 39:1 116:1 287:1 291:1 673:1 985:1 
0 0 0.1680043187318386 0 0 0 0 0 96:1 311:1 361:1 503:1 868:1 1297:1 1772:1 
0 0.09863325495570721 0 0 0 0 0 0 294:1 321:1 532:1 815:1 1351:1 1440:1 
0.0995371691951995 0 0 0 0 0.1275665771259425 0 0 19:1 356:1 361:1 423:1 658:1 678:1 1258:1 1264:1 1773:1 
0 0 0 0.06520329390949417 0 0 0 0 30:1 61:1 116:1 291:1 362:1 430:1 845:1 1272:1 1532:1 
0.05515927382256097 0 0 0 0 0 0 0 48:1 145:1 212:1 246:1 809:1 818:1 
0 0 0.4091640765498905 0 0 0 0 0 30:1 252:1 357:1 
0 0 0 0 0 0 0 0.2010100257617762 13:1 88:1 740:1 1776:1 
0 0.06151526726880852 0 0 0 0 0 0 13:1 39:1 48:1 61:1 116:1 121:1 493:1 625:1 819:1 938:1 1192:1 1296:1 1577:1 1778:1 
0.4991262781863717 0 0 0 0 0.2091231217401249 0 0 275:1 306:1 683:1 845:1 1382:1 
0 0 0 0.3505113570880901 0 0 0 0 73:1 742:1 1327:1 
0.5566034266144462 0 0 0 0 0 0 0 261:1 294:1 
1 0 0 0 0 0 0 0 166:1 
0 0 0 0.7806056342436861 0 0 0 0 243:1 1781:1 
0.232459737643302 0 0 0 0.2598329449677413 0 0 0 25:1 517:1 1210:1 1639:1 
0.284696411026849 0 0 0 0 0 0 0 22:1 191:1 362:1 369:1 533:1 559:1 565:1 604:1 1784:1 
1 0 0 0 0 0 0 0 221:1 719:1 723:1 
0.06229850913524505 0 0 0 0 0 0 0 10:1 27:1 61:1 133:1 244:1 248:1 327:1 380:1 546:1 
0 0.6222547739849291 0 0 0 0 0 0 50:1 59:1 248:1 265:1 590:1 1450:1 1788:1 
1 0 0 0 0 0 0 0 433:1 1749:1 
0 0 0.1188818166804819 0 0 0 0 0 30:1 323:1 620:1 1790:1 
0.4420449226245873 0 0 0 0 0 0 0 677:1 951:1 1275:1 1763:1 
0 0 0 0 0 0 0.08577145976038875 0 17:1 34:1 54:1 508:1 585:1 941:1 1536:1 
0.1276538846137522 0 0 0 0 0 0 0 75:1 96:1 127:1 147:1 670:1 861:1 1051:1 1289:1 
0 1 0 0 0 0 0 0 243:1 1480:1 
0.2393928219452418 0.7421049150735055 0.2664335138387485 0 0 0 0 0 22:1 531:1 568:1 673:1 986:1 1388:1 1567:1 
0 0 0.7324857444723083 0 0 0 0 0 62:1 527:1 542:1 
0 0.1298144757789035 0 0 0 0 0 0 25:1 59:1 61:1 240:1 277:1 428:1 430:1 1386:1 1492:1 1796:1 
0 0.1820495888799479 0 0.1808776877936767 0 0 0 0 414:1 537:1 558:1 761:1 
0 0 0.09771258120657925 0 0 0 0 0 202:1 265:1 564:1 568:1 894:1 1131:1 1344:1 
0 0 0 0 0.6918123379645121 0 0 0 287:1 1538:1 
0 0 0.2920897306593128 0 0 0 0 0 12:1 381:1 382:1 384:1 573:1 677:1 1800:1 
0 0 0 0 0.1773457073626979 0 0 0 7:1 413:1 473:1 529:1 673:1 698:1 1399:1 
0.3008668876134258 0 0 0 0 0 0 0 195:1 241:1 256:1 288:1 946:1 1039:1 1572:1 
1 0 0 0 0 0 0 0 13:1 
0 0 0.2223809780888525 0 0 0.06397639931711521 0 0 34:1 63:1 111:1 394:1 412:1 474:1 479:1 483:1 489:1 628:1 795:1 1803:1 
0.3302347590731461 0 0 0 0 0 0 0 48:1 61:1 114:1 164:1 309:1 555:1 1320:1 
0.4764013719633235 0 0 0 0 0.1020127115003064 0 0 114:1 248:1 1320:1 1368:1 
0 0 0 0 0 0.200400599978448 0 0 61:1 65:1 138:1 161:1 197:1 214:1 380:1 474:1 801:1 979:1 1083:1 1556:1 
0 1 0 0 0 0 0 0 88:1 762:1 802:1 1495:1 
0.2809446103097546 0 0 0.1342719552405184 0 0 0 0 73:1 407:1 524:1 621:1 1254:1 1567:1 1717:1 1806:1 1807:1 
0 0 0 0 0 0.03032826258372406 0 0 72:1 96:1 97:1 135:1 141:1 169:1 181:1 252:1 311:1 385:1 587:1 970:1 1079:1 1417:1 1674:1 
0 0 0.1767855008825041 0 0 0 0 0 2:1 517:1 1411:1 
0 0 0.1136703482757631 0 0 0 0 0 19:1 30:1 73:1 191:1 478:1 551:1 803:1 
0 0 0.8543315318358409 0 0 0 0 0 5:1 65:1 244:1 293:1 294:1 726:1 1634:1 1812:1 1813:1 
0 0 0 0.3386982165529697 0 0 0 0 61:1 124:1 141:1 555:1 1340:1 1524:1 
0 0 0 0 0 0.05865930765412575 0 0 103:1 141:1 367:1 460:1 762:1 873:1 1010:1 1186:1 1394:1 1815:1 
0.1808696043056597 0 0 0 0 0 0 0 141:1 440:1 628:1 716:1 819:1 870:1 
0 0 0 0.1032040217100068 0 0 0 0 67:1 120:1 148:1 942:1 1588:1 1598:1 1642:1 
0.5053737742155693 0 0 0.5525323177362227 0 0 0 0 72:1 90:1 103:1 107:1 120:1 174:1 315:1 414:1 819:1 
0 0.7513813067365785 0 0 0 0 0 0 390:1 590:1 1398:1 1471:1 
0.4942790110655686 0 0 0 0.1610603171320657 0 0 0 60:1 62:1 103:1 287:1 389:1 779:1 874:1 1260:1 1361:1 1814:1 1819:1 1820:1 1821:1 
0 0 0 0 0.08894009875269072 0 0 0 66:1 106:1 224:1 282:1 287:1 318:1 348:1 400:1 404:1 1265:1 
0 0.140234997709681 0 0 0 0 0 0 173:1 669:1 671:1 896:1 990:1 1184:1 
0 0.8041457866878736 0 0 0 0 0 0 1292:1 
0 0.1370118078144695 0 0 0 0 0 0 78:1 396:1 723:1 1570:1 
0 0.3698341845823523 0 0 0 0 0 0 66:1 214:1 423:1 678:1 
0 0.1472352637171794 0 0 0 0 0 0 20:1 171:1 283:1 349:1 450:1 491:1 499:1 502:1 602:1 640:1 1015:1 1113:1 
0.3447779291683589 0 0 0 0.149194779272653 0 0 0 36:1 73:1 151:1 367:1 695:1 723:1 796:1 982:1 
0 0 0 0.3269575442046855 0 0 0 0 40:1 54:1 65:1 178:1 248:1 335:1 404:1 813:1 
0.1098422118768457 0 0 0 0 0.09282198331710216 0 0 0:1 138:1 232:1 414:1 534:1 661:1 670:1 1824:1 
0 0 0.6329470123438901 0 0 0 0 0 82:1 138:1 328:1 1183:1 1831:1 
0.1861566581740484 0 0.1608789917693259 0 0 0 0 0 19:1 478:1 951:1 1324:1 1765:1 1783:1 
0 0 0 0 0.1171497261920683 0 0 0 305:1 382:1 407:1 508:1 517:1 573:1 801:1 1402:1 
0.8521062129463387 0 0.2580429413601971 0 0 0 0 0 82:1 138:1 292:1 
0 0.1344127362226071 0 0 0 0 0 0 61:1 82:1 114:1 125:1 137:1 138:1 327:1 389:1 390:1 441:1 536:1 
0 0 0.5317293261877852 0 0 0 0 0 452:1 
0.2058809235648066 0 0 0 0 0 0 0 21:1 611:1 613:1 682:1 684:1 923:1 1206:1 
0 0.2125833432343853 0 0 0 0 0 0 25:1 39:1 965:1 1083:1 
1 0 0 0 0 0 0 0 244:1 657:1 711:1 
0 0.4343197086938819 0 0.2800553458066702 0 0 0 0 30:1 114:1 212:1 870:1 966:1 993:1 
0.2743369667001352 0 0 0 0 0 0 0 55:1 61:1 108:1 161:1 224:1 347:1 361:1 417:1 459:1 677:1 919:1 1394:1 1820:1 1838:1 
0.5351230293223248 0 0 0 0 0 0 0 34:1 96:1 191:1 425:1 498:1 592:1 697:1 1839:1 
0 0.2579215987150202 0 0 0 0 0 0 39:1 590:1 779:1 978:1 1347:1 
1 0 0 0 0 0 0 0 901:1 
0.1892365063278873 0 0 0 0.1090104210891647 0 0 0 138:1 318:1 937:1 1450:1 1635:1 
0 0 0 0.2155286724689933 0 0 0 0 229:1 301:1 858:1 
1 0 0 0 0 0 0 0 3:1 483:1 795:1 1222:1 1531:1 1844:1 
0.09388188017335397 0 0 0 0 0 0 0 54:1 65:1 75:1 97:1 141:1 241:1 248:1 279:1 281:1 1137:1 1283:1 1295:1 1310:1 1846:1 
0.2963979318753665 0 0 0 0 0 0 0 13:1 166:1 684:1 1847:1 
0 0 0 0 0.205885160111322 0 0 0 116:1 413:1 568:1 660:1 1158:1 1371:1 1849:1 
0 0.4143778971586842 0 0 0 0 0 0 275:1 299:1 361:1 1850:1 
0 0 0 0.1732274845596472 0 0 0 0 275:1 306:1 420:1 742:1 969:1 
0 0 0 0 0.07648090208658073 0 0 0 17:1 56:1 275:1 318:1 400:1 415:1 450:1 703:1 757:1 1295:1 1393:1 
0 0.277104349816379 0 0 0 0 0 0 208:1 211:1 349:1 1206:1 1629:1 1851:1 
0 0.1425555490026089 0 0 0 0 0 0 657:1 913:1 1852:1 
0.3889554499793709 0.3079051982702093 0 0 0 0 0 0 73:1 106:1 294:1 390:1 1066:1 1140:1 1854:1 1855:1 
0.2853665762800263 0 0 0.1796766174281794 0 0 0 0 39:1 40:1 98:1 136:1 248:1 287:1 305:1 315:1 474:1 493:1 524:1 1628:1 1856:1 
0.3847720439229904 0 0 0.08888111737437653 0 0 0 0 15:1 248:1 327:1 424:1 567:1 644:1 887:1 1488:1 
0 0 0.1325516994114716 0 0 0 0 0 80:1 120:1 244:1 684:1 1197:1 1692:1 
0 0 0 0 0 0.1271636245816416 0 0 138:1 293:1 294:1 319:1 347:1 396:1 400:1 838:1 934:1 1223:1 
0 0 0.07693125345928362 0 0 0 0.1000925388142155 0 6:1 132:1 141:1 256:1 529:1 574:1 1458:1 1610:1 1859:1 
0.5517419780282118 0 0.06914909189455822 0 0 0 0 0 19:1 65:1 88:1 584:1 618:1 762:1 932:1 1486:1 
0 0.2394968387982318 0.3241511865135473 0 0 0 0 0 105:1 151:1 590:1 770:1 1583:1 
0.4783409862922207 0 0 0 0 0 0 0 61:1 1862:1 
0.1434896529040539 0 0 0 0 0 0 0 216:1 240:1 577:1 1304:1 
0 0 0.08473666750248467 0 0 0 0 0 82:1 292:1 300:1 707:1 765:1 795:1 1066:1 1509:1 1607:1 1746:1 1785:1 
1 0 0 0 0 0 0 0 141:1 
0 0 0 0 0 0 0.3483430340979679 0 50:1 87:1 626:1 683:1 
0 0 0 0.3235610468184452 0 0 0 0 584:1 762:1 1121:1 1154:1 1667:1 
1 0 0 0.05712887704774006 0 0 0 0 34:1 48:1 254:1 388:1 389:1 479:1 640:1 678:1 848:1 857:1 887:1 1023:1 1151:1 1267:1 
0 0 0.2270467884312225 0 0 0 0 0 16:1 78:1 441:1 892:1 1517:1 
0 0 0 0.04345229752591206 0 0 0 0 25:1 160:1 197:1 408:1 599:1 654:1 843:1 1077:1 1146:1 1333:1 
0 0.3061252366498355 0 0 0 0 0 0 88:1 161:1 224:1 
0.7037398331427946 0 0 0 0 0 0 0 367:1 461:1 825:1 1864:1 
0 0 0 0.1798059075773351 0 0 0 0 65:1 70:1 114:1 140:1 160:1 252:1 503:1 825:1 858:1 1349:1 1866:1 
0 0.311449994634418 0 0 0 0 0 0 25:1 140:1 799:1 1060:1 
0 0.2025718274718513 0 0 0 0 0 0 197:1 362:1 640:1 1548:1 
0.07536482123903486 0 0 0 0 0 0 0 13:1 62:1 120:1 390:1 507:1 657:1 795:1 908:1 1259:1 1445:1 1583:1 1584:1 1832:1 
0 0 0.456909057445989 0 0 0 0 0 1140:1 1204:1 
0 0 0.2542857491063084 0 0 0 0 0 30:1 160:1 305:1 367:1 1010:1 1075:1 1083:1 1171:1 
0 0 0 0 0 0 0 0.06420829702187771 3:1 35:1 38:1 173:1 543:1 562:1 791:1 976:1 1126:1 1142:1 1614:1 
0.4037832507743853 0 0 0 0 0 0 0 25:1 1496:1 1868:1 
0.1085136523660541 0 0 0 0 0 0 0 30:1 485:1 680:1 1591:1 
0 0.08425235464099509 0 0 0 0 0 0 51:1 426:1 951:1 1062:1 1315:1 
0 0.5375789852045703 0 0 0 0 0 0 896:1 977:1 
0 0.2153256667994684 0 0 0 0 0 0 479:1 590:1 1869:1 
0 0.1277848889229674 0 0 0 0 0 0 7:1 244:1 348:1 774:1 1057:1 
0 0 0 0.7510109308604404 0 0 0 0 157:1 
0 0 0 0 0 0 0.119018218860345 0 287:1 335:1 367:1 413:1 894:1 
0.2972970756783028 0 0 0 0 0 0 0 119:1 227:1 230:1 361:1 1145:1 1511:1 
0 0 1 0 0 0 0 0 673:1 752:1 
0.3012886691098188 0 0 0 0 0 0 0 179:1 241:1 245:1 397:1 783:1 1389:1 
0 0.12082657584819 0 0 0 0 0 0 412:1 468:1 1875:1 
0 0 0 0.3152981938008044 0 0 0 0 244:1 256:1 485:1 599:1 601:1 708:1 
0.2416331615078396 0 0 0 0 0 0 0 59:1 73:1 87:1 248:1 275:1 574:1 895:1 1877:1 
1 0 0 0 0 0 0 0 397:1 
0 0 0.09947940691076861 0 0 0 0 0 441:1 507:1 519:1 768:1 1001:1 1881:1 1882:1 
0.09904553303959795 0 0 0 0 0 0.1440555905132086 0 30:1 65:1 106:1 181:1 191:1 265:1 367:1 1109:1 
0 0 0.2980317700446903 0 0 0 0 0 211:1 412:1 479:1 620:1 713:1 746:1 896:1 
0 0.1505636119294479 0 0 0 0 0 0 173:1 189:1 690:1 774:1 1846:1 
0.1594039090600453 0 0 0 0 0 0 0 13:1 54:1 770:1 997:1 
0 0 0 0 0 0.2045241315069691 0 0 289:1 556:1 717:1 884:1 1206:1 1424:1 1646:1 
0 0 1 0 0 0 0 0 176:1 
0 0 0 0 0.152784625684305 0 0 0 19:1 138:1 154:1 188:1 203:1 318:1 358:1 551:1 590:1 817:1 1563:1 
0 0 0.309572870219548 0 0 0 0 0 211:1 638:1 670:1 
0.1524435264099253 0 0 0 0 0 0 0 120:1 312:1 534:1 757:1 1841:1 
0 0 0 0.2196656082692304 0 0 0 0 0:1 1:1 30:1 174:1 817:1 
0 0 0.5554068421434659 0 0 0 0 0 5:1 337:1 346:1 755:1 
1 0 0 0 0 0 0 0 11:1 40:1 120:1 341:1 1080:1 1338:1 1350:1 
0.2125438210024485 0 0 0 0 0 0 0 189:1 371:1 690:1 1016:1 1190:1 1408:1 1681:1 
0 0 0 0.09275752497578402 0 0 0 0 23:1 272:1 275:1 276:1 311:1 312:1 315:1 349:1 427:1 
0 0 0 0 0 0 0.1165225679280682 0 17:1 361:1 1008:1 1712:1 1740:1 1887:1 1888:1 
0 1 0 0 0 0 0 0 30:1 306:1 958:1 
0.2537506827849799 0.1589477218491974 0 0 0 0 0 0 34:1 61:1 112:1 140:1 145:1 191:1 206:1 236:1 306:1 414:1 801:1 874:1 979:1 1136:1 1409:1 1658:1 
0 0 0.1650931487455233 0 0 0 0 0 897:1 942:1 1740:1 
0 0.1208654521077962 0 0 0 0 0 0 248:1 414:1 1301:1 1733:1 
0 0 0 0.1969676576308076 0 0 0 0 16:1 70:1 73:1 103:1 108:1 186:1 295:1 344:1 508:1 597:1 907:1 1500:1 
1 0 0 0.3218743300698578 0 0 0 0 301:1 748:1 
0 0.09027641966771485 0 0 0 0 0 0 20:1 882:1 1839:1 
0 0 0 0.7821030602006551 0 0 0 0 969:1 
0 0.4376441222270996 0 0 0 0 0 0 21:1 90:1 214:1 410:1 673:1 728:1 796:1 897:1 
0.6771930287968232 0 0 1 0 0 0 0 136:1 201:1 241:1 275:1 367:1 451:1 484:1 534:1 
0 0 0 0.6240749935582519 0 0 0 0 34:1 73:1 140:1 248:1 331:1 412:1 453:1 
0.262898888673236 0.1507516927165014 0 0 0 0 0 0 60:1 1804:1 1896:1 
0 0 0.2608567541331993 0 0 0 0 0 286:1 342:1 346:1 349:1 736:1 954:1 1758:1 1897:1 
0 0 0.24370981079791 0 0.1112409266061367 0 0 0 27:1 40:1 178:1 441:1 493:1 743:1 1718:1 
0.6534039819659915 0 0 0 0 0 0 0 25:1 40:1 114:1 221:1 224:1 248:1 256:1 305:1 367:1 534:1 
0.3879588308336671 0 0 0 0 0 0 0 154:1 248:1 265:1 415:1 450:1 538:1 608:1 838:1 934:1 1162:1 1296:1 
0.02328978465508977 0 0 0 0 0 0 0 61:1 191:1 774:1 
0.1496976206720789 0 0 0.1756419448991336 0 0 0 0 65:1 72:1 132:1 135:1 283:1 315:1 1075:1 1111:1 1115:1 1685:1 
0.3958313327510723 0 0 0 0 0 0 0 21:1 523:1 735:1 926:1 1770:1 1899:1 
0 0.3076839558691735 0 0 0 0 0 0 52:1 385:1 1900:1 
0 0 0 0.07164146928268704 0 0 0 0 137:1 315:1 347:1 392:1 528:1 1131:1 1223:1 
0 0 0 0 0.1618789391914427 0 0 0 116:1 720:1 824:1 
1 0 0.1401307292297039 0 0 0 0 0 52:1 65:1 1510:1 
0.5253137410054475 0 0 0 0 0 0 0 72:1 73:1 75:1 138:1 191:1 246:1 369:1 524:1 697:1 766:1 1056:1 1908:1 
0 0.292377743262401 0 0 0 0 0 0 16:1 191:1 601:1 673:1 723:1 
0.09618398193126215 0 0 0 0 0 0 0 26:1 145:1 288:1 463:1 907:1 1579:1 1909:1 
0 0.4452977614372187 0 0.253069541763251 0 0 0.1056726182397518 0 173:1 244:1 248:1 294:1 327:1 335:1 
0.8272507372957831 0 0 0 0 0 0 0 34:1 52:1 707:1 839:1 1048:1 1090:1 
1 0 0 0 0 0.1180671115101145 0 0 50:1 1439:1 
0.2400668260450255 0 0 0 0 0 0 0 59:1 135:1 217:1 248:1 311:1 322:1 599:1 676:1 1080:1 1653:1 
0 0 0 0 0 0 0.1360338348296347 0 248:1 342:1 425:1 449:1 524:1 600:1 603:1 677:1 735:1 833:1 929:1 1111:1 1914:1 
0 0.1361739090581255 0 0 0 0 0 0 54:1 140:1 242:1 325:1 365:1 814:1 
0 0.214702376651383 0 0.3183645757560353 0 0 0 0 0:1 19:1 30:1 195:1 242:1 
0 0 0.09708485562143566 0 0 0 0 0 19:1 182:1 311:1 897:1 1492:1 
0 0 0.2526490694739245 0 0 0 0 0 16:1 34:1 38:1 116:1 120:1 218:1 309:1 349:1 529:1 818:1 951:1 1283:1 
0.9623660879645622 0 0 0 0 0 0 0 61:1 116:1 248:1 487:1 
0 0 0 0 0 0.2214957898185533 0 0 114:1 278:1 366:1 423:1 
0 0.1198929365131648 0 0 0 0 0 0 25:1 179:1 321:1 598:1 775:1 923:1 1511:1 
0.3500042652478337 0 0 0.1708532944625967 0 0 0 0 166:1 407:1 673:1 
0 0 0.1176102343554886 0.2126889353662003 0 0 0 0 138:1 408:1 414:1 474:1 508:1 748:1 805:1 874:1 1066:1 1665:1 1803:1 1830:1 1917:1 1919:1 
0 0 0 0 0.07342518157621362 0 0 0 161:1 180:1 407:1 562:1 688:1 714:1 1001:1 
0 0.1162975401683653 0 0 0 0 0 0 56:1 462:1 479:1 670:1 989:1 1295:1 1565:1 
0 0 0 0 0.3152733183001597 0 0 0 103:1 379:1 1007:1 
0.24558365518914 0 0 0 0 0 0 0 646:1 
0.3098069272678395 0 0 0 0.367229004268727 0 0 0 154:1 551:1 604:1 
0 0 0 0.4120696394079679 0 0 0 0 155:1 191:1 388:1 389:1 1426:1 
0 0.6369494139267444 0 0 0 0 0 0 36:1 412:1 785:1 1080:1 
0.3795515671536354 0.9258680268904154 0 0 0 0 0 0 299:1 1869:1 
0 0.02683276950148972 0 0 0 0 0 0 121:1 321:1 711:1 791:1 816:1 
0 0.2467503854329076 0 0 0 0 0 0 19:1 40:1 1469:1 
1 0 0 0 0 0 0 0 15:1 
0 0 0 0 0.2454050739847848 0 0 0 50:1 200:1 287:1 327:1 355:1 546:1 596:1 611:1 702:1 
0 0.365635653026996 0 0 0 0 0 0 65:1 135:1 229:1 457:1 561:1 764:1 983:1 1215:1 1873:1 
0 0.178894697209802 0 0 0 0 0 0 417:1 648:1 789:1 1713:1 
0.2971629824989495 0 0 0 0 0 0 0 191:1 253:1 479:1 723:1 
0 0 0 0 0.1925940933925714 0 0 0 26:1 105:1 115:1 716:1 
0 0 0.1586496667557688 0 0 0 0 0 198:1 400:1 406:1 1060:1 
0.316710289283386 0 0 0 0 0 0 0 243:1 1488:1 
0 0 0 0 0.2833856255382495 0 0 0 25:1 244:1 361:1 1446:1 1830:1 1929:1 1930:1 
0.7775555234141495 0 0 0 0 0 0 0 164:1 390:1 
0.01491806604599254 0 0 0 0 0 0 0 3:1 114:1 177:1 248:1 413:1 1909:1 1923:1 
0 0.3679126020196928 0 0 0 0 0 0 48:1 65:1 179:1 245:1 924:1 1099:1 1558:1 1618:1 1931:1 1932:1 
0.06240905814754678 0.0735353076424427 0 0 0 0 0 0 168:1 190:1 244:1 318:1 433:1 479:1 774:1 1192:1 1860:1 
0 0 0 0 0 0.08408000027652694 0.1090835231274149 0 30:1 39:1 306:1 335:1 367:1 797:1 884:1 1614:1 
0 0 0.2925079732901361 0 0 0 0 0 244:1 430:1 555:1 768:1 843:1 
0 0 0 0 0 0.6475623437693501 0 0 224:1 291:1 1100:1 
1 0 0 0 0 0 0 0 770:1 1042:1 1593:1 
0.889997603521315 0 0 0 0 0.3067330776495863 0 0 13:1 136:1 951:1 990:1 
0.4681589562292523 0 0 0 0 0 0 0 22:1 224:1 291:1 294:1 358:1 604:1 670:1 769:1 1089:1 1242:1 
0 0 0 0 0 0.09021584821069899 0 0 417:1 474:1 872:1 884:1 1065:1 1389:1 
0 0 0.3327362231918294 0 0 0 0 0 21:1 323:1 648:1 1288:1 1411:1 1531:1 
1 0 0 0 0 0 0 0 65:1 789:1 1148:1 
0.8838303344494516 0 0 0 0 0 0 0 301:1 534:1 
0.2438688447678194 0 0 0.1939979814009662 0 0 0 0 114:1 287:1 354:1 463:1 723:1 1146:1 1426:1 
0.2290151940321984 0 0 0 0 0 0 0 72:1 197:1 248:1 304:1 803:1 
1 0 0 0 0 0 0 0 61:1 287:1 1133:1 
1 0 0 0 0 0 0 0 275:1 
1 0 0.2301765781931946 0 0 0 0 0 311:1 454:1 620:1 
0 0 0.1393394332966388 0 0 0 0 0 211:1 326:1 670:1 1084:1 1230:1 
0 0 0.1810906889091391 0 0 0 0 0 264:1 1219:1 1485:1 1499:1 1911:1 
0 0 0 0 0 0.07266400916749194 0.1259894915121839 0 0:1 1:1 124:1 187:1 296:1 378:1 396:1 681:1 779:1 1071:1 1333:1 
0 0 0.1089159885027643 0 0 0 0 0 96:1 183:1 599:1 1118:1 
0 0.07770060113360593 0 0 0 0 0 0 200:1 363:1 767:1 1454:1 
0.4710117406615947 0 0 0 0 0 0 0 27:1 116:1 327:1 425:1 475:1 803:1 1008:1 1671:1 
0 0.1177615186231466 0.1668681368634375 0 0 0 0 0 6:1 138:1 389:1 536:1 777:1 1490:1 
0 0 0.1059041214109486 0 0 0 0 0 50:1 56:1 120:1 362:1 480:1 1489:1 1941:1 
0 0 0.1707393761239419 0 0 0 0 0 129:1 162:1 283:1 1206:1 1943:1 1944:1 
0 0 0.1156841005740101 0 0 0 0 0 254:1 378:1 783:1 1194:1 1534:1 1945:1 
0 0 0 0 0 0 0.4045696419762011 0 306:1 620:1 1024:1 
0 0 0 0 0.1136981421955056 0 0 0 389:1 692:1 993:1 1731:1 1880:1 
0 0.5728351972091246 0 0.03962133773375399 0.05174467415868998 0 0 0 25:1 87:1 141:1 195:1 242:1 351:1 619:1 669:1 671:1 720:1 822:1 1272:1 1376:1 1408:1 1932:1 
0.8395434194824845 0 0 0 0 0 0 0 1827:1 
0 0 0 0 0.07726663812078785 0 0 0 28:1 48:1 64:1 194:1 241:1 568:1 762:1 819:1 860:1 968:1 1150:1 1168:1 1249:1 1303:1 
0 0.08307417675084031 0 0 0 0 0 0 34:1 628:1 922:1 942:1 963:1 
0.1923575442991081 0 0 0 0 0 0 0 3:1 175:1 213:1 223:1 308:1 479:1 527:1 534:1 646:1 647:1 648:1 649:1 650:1 652:1 
0 0 0 0 0 0 0 0.3019123242936319 191:1 599:1 807:1 1226:1 
0.6386649153462199 0 0 0 0 0 0 0 228:1 252:1 297:1 773:1 1125:1 1301:1 1859:1 
0 0 0 0 0 0 0.09624758772423569 0 18:1 73:1 244:1 369:1 423:1 582:1 714:1 
0 0.4030529528820971 0 0 0 0 0 0 34:1 248:1 423:1 813:1 1087:1 1475:1 
0.3298888619006781 0 0 0 0 0 0 0 243:1 817:1 1387:1 
0.07848518719098206 0 0 0 0 0 0 0 61:1 97:1 247:1 558:1 859:1 1947:1 
0 0 0 0 0 0.08059737161295676 0 0 48:1 59:1 336:1 428:1 496:1 670:1 977:1 1794:1 
0 0 0 0.2790580186239066 0 0.1560992647925887 0 0 39:1 344:1 555:1 724:1 843:1 876:1 1238:1 1390:1 1609:1 
0.1750915935664667 0 0 0 0 0 0 0 34:1 557:1 1017:1 1701:1 
0.3592180387287488 0 0 0 0 0 0 0 181:1 214:1 216:1 263:1 407:1 484:1 848:1 872:1 
1 0.12631847876977 0.2662668509882063 0 0 0 0 0 22:1 590:1 670:1 787:1 1242:1 
0.2036438660671096 0 0 0 0 0 0.156733623209524 0 587:1 648:1 1377:1 1378:1 1380:1 1557:1 
0 0 0 0 0.2350146924338335 0 0 0 30:1 407:1 474:1 
0 0.05859852266364575 0 0 0 0 0 0 33:1 56:1 61:1 244:1 275:1 704:1 1158:1 1295:1 1634:1 1949:1 
0 1 0 0 0 0 0 0 590:1 
0 0 0.08496205578761606 0 0 0 0 0 640:1 894:1 1099:1 
0.2418091204586497 0 0 0 0 0 0 0 311:1 876:1 1303:1 
0 0 0.5059592409956424 0 0 0.2359130219677794 0 0 30:1 56:1 246:1 306:1 1133:1 
0.1988701487649321 0 0.103892597307501 0.1303737714024555 0 0 0 0 41:1 52:1 362:1 366:1 449:1 1849:1 1943:1 
0.17445127026291 0 0 0 0 0 0 0 19:1 25:1 161:1 172:1 244:1 606:1 673:1 752:1 819:1 951:1 1158:1 
0 0 0 0 0.1901680123300586 0 0 0 83:1 116:1 137:1 224:1 291:1 1242:1 
0.3678276326003727 0 0 0 0 0 0 0 16:1 30:1 234:1 279:1 367:1 829:1 1284:1 1769:1 1950:1 
0 0 0.06689733453006255 0.2204109769021845 0 0 0 0 30:1 38:1 108:1 181:1 275:1 521:1 601:1 679:1 1281:1 
0 0 0 0.0758198597029188 0 0 0 0 17:1 396:1 452:1 838:1 934:1 955:1 1711:1 1860:1 
0 0 0 0.1017602991613848 0 0 0 0 75:1 156:1 275:1 297:1 366:1 534:1 562:1 765:1 845:1 1241:1 
0 0.4693305578874832 0 0 0 0 0 0 0:1 246:1 524:1 
0.2259114142101274 0 0 0 0 0 0 0 387:1 1913:1 1951:1 1952:1 
0 0 0.4473555614168782 0 0 0 0 0 20:1 305:1 392:1 417:1 635:1 
0 0 0 0 0 0.1294985244998531 0 0 862:1 1067:1 1130:1 1953:1 
0.8372591830562703 0 0 0 0 0 0 0 21:1 48:1 59:1 138:1 425:1 529:1 581:1 1264:1 
0 0.1712898158734557 0 0 0 0 0 0 173:1 257:1 532:1 
0.09550168018673622 0 0 0 0 0 0 0 479:1 
0 0 0 0 0 0 0.1674941466225816 0 6:1 15:1 35:1 144:1 178:1 409:1 577:1 673:1 740:1 1075:1 1146:1 
0.1411040586424723 0 0 0.06581761673213718 0 0 0 0 25:1 30:1 39:1 133:1 337:1 537:1 577:1 601:1 1815:1 1955:1 
0.0860376015194888 0.115619460706943 0 0 0 0 0 0 25:1 117:1 294:1 922:1 1672:1 
0 0 0 0 0.1919365398365048 0 0 0 105:1 120:1 132:1 135:1 601:1 
0 0 0.1554331653615866 0 0 0 0 0 16:1 47:1 75:1 281:1 320:1 625:1 761:1 1137:1 
1 0 0 0 0 0 0 0 98:1 103:1 141:1 819:1 
0 0 0 0 0 0.4532762153275089 0 0 88:1 96:1 102:1 174:1 625:1 1665:1 
0 0 0 0 0.1463205309587393 0 0 0 57:1 308:1 640:1 762:1 899:1 1252:1 1410:1 
0 0 0 0 0 0.1709793794198361 0 0 39:1 54:1 90:1 179:1 308:1 378:1 
0.1503595876003435 0 0 0 0 0 0 0 25:1 417:1 574:1 620:1 1610:1 
0 1 0 0 0 0 0 0 145:1 599:1 
0.1961248192683006 0 0.161967102073937 0 0 0 0 0 318:1 490:1 825:1 1392:1 1592:1 
0.1954488582284304 0 0 0 0 0 0 0 25:1 122:1 174:1 562:1 836:1 1010:1 1071:1 1161:1 1317:1 1390:1 1485:1 
1 0 0 0 0 0 0 0 114:1 183:1 423:1 490:1 599:1 807:1 894:1 
0 0 0 0 0 0 0.07204452567984075 0 66:1 315:1 320:1 383:1 414:1 420:1 423:1 493:1 714:1 983:1 1220:1 1856:1 
0 0.1479866890412855 0 0 0 0 0 0 335:1 404:1 1941:1 
0.1736375018578192 0 0 0 0 0 0 0 105:1 240:1 389:1 535:1 769:1 907:1 1908:1 
0.4326562004848417 0.822248686052653 0.5152393823065613 0 0 0 0 0 75:1 138:1 306:1 389:1 412:1 414:1 440:1 536:1 
0.0924456415885436 0 0 0 0 0 0 0 54:1 59:1 116:1 241:1 256:1 397:1 407:1 415:1 1801:1 
1 0 0.07339636443932479 0 0 0 0 0 75:1 107:1 306:1 1658:1 
0.4341017474892123 0 0 0 0 0 0 0 190:1 217:1 
0.6523454282792898 0 0.2631795812351695 0 0 0.1164791097422753 0 0 39:1 54:1 256:1 848:1 
0.1026992053297221 0 0 0 0 0 0 0 72:1 191:1 262:1 301:1 776:1 1959:1 
0 0 0.08457266447742062 0 0 0 0 0 54:1 107:1 188:1 224:1 228:1 353:1 
0.4245438845307814 0 0 0 0 0 0 0 15:1 19:1 30:1 38:1 151:1 182:1 244:1 246:1 411:1 907:1 1960:1 
0 0 0 0.5486076517500226 0 0 0 0 197:1 344:1 656:1 
0 0 0.2663671774630236 0 0 0 0 0 4:1 626:1 1099:1 
0.4189025757301902 0 0 0 0 0 0 0 138:1 234:1 252:1 391:1 507:1 537:1 823:1 838:1 934:1 988:1 1064:1 1260:1 1966:1 
0 0 0.4890784174784744 0 0 0 0 0 1782:1 1841:1 
0.3015479393052971 0 0 0 0.09822562126423499 0 0 0 15:1 162:1 244:1 435:1 568:1 648:1 714:1 794:1 911:1 1351:1 
0 0 0 0 0 0.173465620734025 0 0 117:1 214:1 573:1 683:1 
0 0 0.5637648767439327 0 0 0 0 0 17:1 404:1 422:1 663:1 1969:1 
0 0 0 0 0 0 0.1499427931594876 0 52:1 367:1 716:1 825:1 
1 0 0 0 0 0 0 0 30:1 141:1 284:1 812:1 833:1 1103:1 1144:1 1790:1 
0 0.4241642495542233 0 0 0 0 0 0 6:1 39:1 114:1 179:1 201:1 242:1 414:1 423:1 478:1 690:1 907:1 1408:1 
0 0 0 0 0.3640925771015942 0 0 0 619:1 803:1 1633:1 
0 0 0 0.3730073170801358 0 0 0 0 39:1 116:1 161:1 248:1 305:1 315:1 577:1 801:1 
0 0.1960150696841667 0.1661805663139625 0 0 0 0 0 33:1 39:1 54:1 137:1 256:1 534:1 894:1 1121:1 
0 0 0 0 0 0.250814495992852 0 0 38:1 1133:1 1293:1 1385:1 1973:1 
0 0 0.1046512936523678 0 0 0 0 0 339:1 471:1 1542:1 1625:1 1975:1 
0.1816540042398161 0 0 0 0 0 0 0 28:1 428:1 505:1 559:1 1623:1 1895:1 1928:1 
0 0.1034743604524091 0 0 0 0 0 0 3:1 65:1 412:1 492:1 555:1 568:1 694:1 855:1 1563:1 
0 0 0.3824627406918781 0 0 0 0 0 547:1 
0 0 0.02522267463901097 0 0 0 0 0 21:1 189:1 381:1 382:1 398:1 412:1 914:1 1181:1 1346:1 1623:1 
0.2061072230630318 0 0 0 0 0 0 0 114:1 179:1 728:1 817:1 
0 0 0.2781767245053152 0 0 0 0 0 897:1 946:1 1433:1 
0 0 0 1 0 0 0 0 102:1 388:1 389:1 610:1 966:1 
0 0 0 0 0 0.4439339576629313 0 0 470:1 595:1 
0.08940562956395975 0 0 0 0 0 0 0 15:1 102:1 138:1 551:1 654:1 742:1 1001:1 1148:1 
0 0 0 0.1791480737839698 0 0 0 0 169:1 315:1 824:1 884:1 1143:1 1929:1 
0 0 0 0.193453564695183 0 0 0 0 66:1 176:1 307:1 389:1 508:1 793:1 815:1 1112:1 1191:1 1440:1 1733:1 1980:1 
0.3788814513632033 0 0 0 0 0 0 0 288:1 673:1 752:1 1325:1 1424:1 
0.139814857304582 0.4548694298700754 0 0 0.1459368710119781 0 0 0 3:1 61:1 287:1 312:1 429:1 541:1 594:1 989:1 1890:1 1956:1 1981:1 
0 0.3952165927345361 0 0 0 0 0 0 224:1 358:1 922:1 
0 0 0 0.3674699330753953 0 0 0 0 97:1 111:1 114:1 408:1 424:1 
0 0 0.1553214977557714 0 0 0 0 0 88:1 229:1 534:1 959:1 1658:1 
0.2222959172894748 0 0 0 0 0 0 0 61:1 211:1 537:1 571:1 665:1 670:1 840:1 1146:1 1219:1 
0.09628625880491955 0 0 0 0 0 0 0 30:1 191:1 275:1 294:1 298:1 306:1 479:1 582:1 1246:1 
0.1745783023953278 0 0 0 0 0 0 0 381:1 558:1 563:1 1773:1 1913:1 
0.9249702370631764 0 0 0.096232395956657 0 0 0 0 4:1 322:1 534:1 833:1 
0.164287553318149 0.1372432879252197 0 0 0 0 0 0 10:1 567:1 764:1 1653:1 
0 0.1279261163290607 0 0 0 0 0 0 250:1 412:1 423:1 599:1 
0.8315752107330406 0 0 0 0 0 0 0 30:1 161:1 203:1 342:1 400:1 474:1 577:1 601:1 620:1 716:1 1214:1 1224:1 1303:1 
0.1378187046686589 0.03315038095315659 0 0 0 0 0 0 109:1 284:1 395:1 948:1 1142:1 1160:1 1246:1 1988:1 
1 0 0.42047898875775 0 0 0 0 0 15:1 
0.4690036740725081 0 0 0 0 0 0 0 37:1 39:1 154:1 179:1 323:1 407:1 524:1 689:1 
0 0 0.7020322942088854 0 0 0 0 0 41:1 1326:1 
0.4484045395442597 0 0 0 0 0 0 0 275:1 622:1 673:1 1361:1 
1 0 0 0 0 0 0 0 265:1 292:1 1471:1 
0.4858379944144887 0 0.4119375156490811 0 0 0 0 0 203:1 536:1 685:1 768:1 987:1 1260:1 1445:1 
0 0 0 0.07985635159681316 0 0 0 0 15:1 35:1 234:1 358:1 474:1 502:1 1010:1 1304:1 
0.5696217226102832 0 0 0 0 0 0 0 75:1 294:1 306:1 337:1 1054:1 1098:1 1495:1 1734:1 
0 0 0.1083981657438244 0 0 0 0 0 34:1 50:1 167:1 244:1 295:1 381:1 382:1 609:1 670:1 676:1 757:1 1106:1 1206:1 1506:1 
0 0 0.2744180135937509 0 0 0 0 0 0:1 120:1 415:1 417:1 501:1 546:1 670:1 683:1 1463:1 1669:1 
0.203893062006649 0 0 0 0 0 0 0 32:1 92:1 
0 0 0 0 0.1739752007278885 0 0 0 524:1 714:1 1313:1 
1 0 0 0 0 0 0 0 33:1 75:1 132:1 191:1 306:1 347:1 490:1 796:1 
0.4606150159549218 0 0 0 0 0 0 0 138:1 211:1 244:1 318:1 408:1 639:1 642:1 987:1 1264:1 1855:1 
0 0 0 0.1250831671879502 0 0 0 0 184:1 349:1 381:1 382:1 459:1 564:1 724:1 1143:1 1950:1 
0.1746576404683321 0.3299061822954775 0 0 0 0 0 0 75:1 102:1 181:1 306:1 
0 0.5631655984714088 0 0 0 0 0 0 275:1 285:1 1469:1 
0 0 0.08968240564733131 0 0.1696037240712227 0 0 0 26:1 56:1 72:1 244:1 310:1 1071:1 1450:1 1995:1 
1 0 0 0 0 0 0 0 132:1 133:1 135:1 1298:1 
0 0 0 0 0 0 0 0.1353033795044255 38:1 331:1 551:1 640:1 679:1 971:1 1544:1 1996:1 
0 0 0.3933325032677694 0 0 0 0 0 453:1 1517:1 2000:1 
0 0 0 0 0 0.4340777428039016 0 0 50:1 63:1 159:1 559:1 1693:1 
1 0 0 0 0 0 0 0 684:1 
0.3913356106161078 0 0 0 0 0.2410432167115296 0 0 131:1 137:1 161:1 214:1 423:1 783:1 1011:1 1368:1 
0 1 0 0 0 0 0 0 136:1 635:1 
0 0.3330470452385542 0 0 0 0 0 0 138:1 536:1 
0 0 0 0.5727496138695152 0 0 0 0 65:1 856:1 982:1 
0 0 0 0 0 0 0.08146292326089055 0 6:1 189:1 242:1 264:1 287:1 408:1 412:1 478:1 640:1 643:1 645:1 818:1 856:1 2003:1 
1 0.0005647975072760603 0 0 0 0 0 0 15:1 138:1 
0 0.08814028628519971 0 0 0 0 0 0 6:1 34:1 124:1 137:1 232:1 242:1 559:1 859:1 1349:1 1818:1 1866:1 1888:1 
0 0 0 0 0.1306763255591364 0 0 0 30:1 71:1 291:1 490:1 543:1 921:1 1412:1 1592:1 
0.1221617338644569 0 0 0.1267963436889591 0 0 0 0 141:1 145:1 408:1 806:1 1010:1 1709:1 
0 0 0.1219042738780486 0 0 0 0 0 5:1 382:1 417:1 479:1 573:1 960:1 1220:1 1336:1 1457:1 
0 0 0 0 0 0 0.05827212875141114 0 6:1 83:1 141:1 297:1 369:1 534:1 834:1 1016:1 1329:1 2005:1 
0 0 0 0.2971560369852321 0 0 0 0 407:1 507:1 701:1 743:1 749:1 1410:1 1518:1 1674:1 2006:1 
0.204707372069679 0 0 0 0 0 0.3132860655439483 0 17:1 254:1 1110:1 1650:1 2007:1 
0.09485077408962903 0 0.05505560770332057 0 0 0 0 0 116:1 139:1 910:1 912:1 992:1 1156:1 1197:1 1351:1 1740:1 1889:1 
0 0 0.07762206952337974 0 0 0 0 0 34:1 173:1 275:1 290:1 582:1 762:1 1762:1 
0 0 0 0 0 0.09587088882381398 0 0 50:1 417:1 478:1 965:1 982:1 1285:1 1386:1 
0.2543172239321012 0 0 0 0 0 0 0 305:1 406:1 407:1 474:1 602:1 832:1 
0 0 0 0 0.1830831591859378 0 0 0 107:1 206:1 287:1 407:1 414:1 909:1 
0.290416273978054 0.1080533377555606 0 0 0 0 0 0 5:1 25:1 27:1 111:1 327:1 571:1 
0 0.8492448885972053 0 0 0 0 0 0 275:1 414:1 465:1 856:1 1242:1 
0 0 0.2997783463379998 0 0 0 0 0 78:1 88:1 97:1 265:1 1086:1 1368:1 1385:1 
0 0.3328324493637315 0.2152963728945987 0 0 0.3754607727900783 0 0 75:1 161:1 496:1 1099:1 
0.08105186720332376 0 0 0 0 0 0 0 175:1 415:1 512:1 826:1 
0 0.02151653032869781 0 0 0 0 0 0 19:1 50:1 167:1 244:1 335:1 896:1 979:1 1031:1 1888:1 1895:1 2013:1 
0 0.1421438496998233 0 0 0 0 0 0 74:1 555:1 763:1 803:1 813:1 969:1 
0 0 0 1 0 0 0 0 1254:1 
1 0 0 0 0 0 0 0 141:1 191:1 969:1 
0 0.4823142695712993 0 0 0 0 0 0 19:1 423:1 468:1 1464:1 1495:1 1525:1 1923:1 
0 0 0 0.05741409671835683 0.1590074801435606 0.04057450820637584 0 0 26:1 34:1 141:1 287:1 306:1 365:1 366:1 376:1 524:1 626:1 773:1 
0 0.1265607776942367 0 0 0 0 0 0 244:1 1548:1 2016:1 
0.3374065184711559 0 0.1711038810153845 0 0 0 0 0 783:1 1365:1 
0 0.464017237547704 0 0 0 0 0 0 19:1 423:1 562:1 1256:1 
0 0 0 0 0.5344801505620471 0 0 0 195:1 275:1 
0 0 0.06250161745738694 0 0 0 0 0 658:1 676:1 
0 0 0.4865746612192515 0 0 0 0 0 19:1 38:1 
1 0.6872760977898643 1 0 0 0 0 0 389:1 536:1 685:1 
0.2607640696294952 0 0 0 0 0 0 0 141:1 173:1 217:1 318:1 324:1 493:1 543:1 1233:1 2020:1 
0 0 0.1653728342176414 0.1187910170134002 0 0 0 0 26:1 30:1 114:1 137:1 217:1 322:1 324:1 364:1 388:1 389:1 483:1 626:1 1572:1 1788:1 1789:1 
0 0 0 0.1613852505813636 0 0 0 0 25:1 72:1 308:1 
0.3113510001761295 0 0 0 0 0 0 0 166:1 663:1 791:1 1220:1 
0.1438630809100825 0.137202166368104 0 0 0.3185739116451494 0 0 0 19:1 199:1 330:1 423:1 806:1 1603:1 
0 0.3600881433751996 0 0 0 0 0 0 48:1 75:1 136:1 290:1 696:1 806:1 1828:1 1932:1 
0 0 0 0 0 0.2355110354646664 0 0 30:1 61:1 392:1 396:1 977:1 1044:1 1451:1 
0.1513735331290822 0 0 0 0.2972583143625421 0 0 0 30:1 48:1 99:1 367:1 673:1 948:1 1302:1 
0 0 0 0 0 0.05472008039831091 0 0 54:1 197:1 256:1 752:1 791:1 1293:1 1580:1 2022:1 2023:1 
0 0.2051259127444167 0 0 0 0 0 0 248:1 412:1 441:1 526:1 848:1 
0 0.5091402126200837 0 0 0 0 0 0 141:1 154:1 161:1 169:1 256:1 311:1 958:1 982:1 1016:1 1170:1 
0 0.1917429751175259 0 0 0 0 0 0 275:1 643:1 1037:1 1105:1 1306:1 1912:1 1950:1 2026:1 2027:1 
0 0 0.09589616090694328 0 0 0 0 0 17:1 390:1 392:1 731:1 
0.1231623607763295 0.3917118878443295 0 0 0 0 0 0 40:1 122:1 291:1 
0 0 0.004621481898272273 0 0 0 0 0 34:1 139:1 285:1 287:1 362:1 1083:1 1592:1 
0.3486314442710169 0.2119831966918464 0 0 0 0 0 0 244:1 292:1 344:1 356:1 394:1 527:1 698:1 803:1 818:1 1258:1 1264:1 1344:1 1497:1 
0 0 0.1357481458111684 0 0 0 0 0 381:1 382:1 480:1 628:1 900:1 1617:1 2028:1 
0 0.3513762284918303 0 0.1470573240557465 0 0 0 0 189:1 248:1 492:1 529:1 783:1 823:1 1010:1 1279:1 1341:1 1410:1 
0.5544866065655151 0 0 0 0 0 0 0 48:1 52:1 61:1 105:1 181:1 189:1 224:1 256:1 269:1 285:1 305:1 413:1 428:1 492:1 779:1 1293:1 1622:1 
0 0 0.2850147951388137 0 0 0 0 0 34:1 413:1 1515:1 1607:1 
0.3134900059527073 0 0 0 0 0 0 0 35:1 39:1 48:1 103:1 256:1 413:1 518:1 542:1 1091:1 
0 0 0 0.3092844325032068 0 0 0 0 0:1 6:1 136:1 137:1 145:1 176:1 342:1 1760:1 1976:1 
1 0 0 0 0 0 0 0 111:1 135:1 809:1 
0 0.1131915743572472 0 0 0 0 0 0 115:1 462:1 471:1 534:1 1071:1 
0 0.1399534923821866 0 0 0 0 0 0 90:1 126:1 170:1 291:1 448:1 534:1 640:1 1192:1 
0.2352009355116627 0 0 0 0.2320389253441979 0 0 0 121:1 559:1 1564:1 1775:1 1865:1 
0.06976372057338642 0 0.083463934696692 0 0 0 0.2027961965418021 0 9:1 72:1 106:1 201:1 328:1 534:1 552:1 626:1 632:1 681:1 988:1 1333:1 
0 0.2223096352385305 0 0 0 0 0 0 239:1 489:1 818:1 2030:1 
0 0.08638069329736574 0 0 0 0 0 0 25:1 54:1 221:1 236:1 265:1 601:1 
0 0 0 0 0 0.146666470838535 0 0 107:1 138:1 414:1 536:1 795:1 1785:1 2031:1 
0 0 0 0.1008827917447446 0 0 0 0 73:1 117:1 678:1 2036:1 
0.1595769505392117 0 0 0 0 0 0 0 16:1 27:1 153:1 281:1 555:1 
0 0 0.1585185493664355 0 0 0 0 0 120:1 946:1 2037:1 
0.2418647944013165 0 0 0.3887394901032016 0 0 0 0 287:1 301:1 534:1 1658:1 
0.1115609234724647 0 0 0 0 0 0 0 89:1 415:1 774:1 1050:1 
0.07808425493879902 0 0 0 0 0 0 0 52:1 120:1 894:1 951:1 1002:1 1100:1 
0.3759551278718004 0 0 0 0 0 0 0 50:1 227:1 421:1 779:1 1023:1 1096:1 
0.38661963293013 0 0 0 0 0 0 0 834:1 
1 0 0 0 0 0 0 0 141:1 
0.1267531484454895 0 0 0 0 0 0 0 39:1 683:1 712:1 1628:1 
0 0 1 0 0 0 0 0 65:1 331:1 805:1 
0.0858370044923752 0 0 0 0 0 0 0 25:1 574:1 837:1 838:1 952:1 1746:1 2039:1 
0.7740885857898726 0.4533551156169602 0 0 0 0 0 0 183:1 191:1 526:1 599:1 605:1 648:1 
1 0 0 0 0 0 0 0 306:1 
0 0.374919167038326 0 0 0.1373166228655914 0 0 0 64:1 195:1 242:1 252:1 287:1 365:1 766:1 779:1 
0 0.4595960598575399 0 0 0 0 0 0 54:1 327:1 
0 0 1 0 0 0 0 0 292:1 484:1 
0.2788576276222859 1 0 0 0 0 0 0 106:1 114:1 413:1 478:1 958:1 
1 0 0 0 0 0 0 0 604:1 1252:1 
0 0.324480314468121 0 0 0 0 0 0 590:1 638:1 
0 0.5829512425141936 0 0 0 0 0 0 390:1 537:1 562:1 1064:1 
1 0 0 0.3363760364735452 0 0 0 0 13:1 474:1 479:1 736:1 
0.3321483134707594 0 0 0 0 0 0 0 888:1 
0 0.2568840934377524 0 0 0 0 0 0 0:1 1658:1 
0 0 0 0 0.1694342397049812 0 0 0 61:1 140:1 417:1 761:1 803:1 
0 0 1 0 0 0 0 0 1607:1 
1 0 0 0 0 0 0 0 109:1 
0 0.8952903452590377 0 0 0 0 0 0 88:1 145:1 524:1 673:1 1607:1 
0.371902608251702 0 0 0.1145651798143445 0 0 0 0 197:1 248:1 741:1 783:1 1501:1 
0.1603264003786386 0 0 0 0 0 0 0 138:1 412:1 474:1 1012:1 1675:1 
0.5404237372446972 0 0 0 0 0 0 0 109:1 141:1 559:1 819:1 
0.1302656697492442 0 0 0 0 0 0 0 4:1 216:1 336:1 986:1 
0.110002396478685 0 0 0 0 0 0 0.08597059919188565 13:1 136:1 157:1 191:1 248:1 610:1 1321:1 
0.1316862069012037 0 0 0 0 0 0 0 228:1 301:1 834:1 1127:1 
0 0 0 0 0 0.2401557685486863 0 0 156:1 321:1 407:1 423:1 1328:1 
0 0 0 0 0 0.1079294149089164 0 0 73:1 145:1 1252:1 1320:1 
0 0 0 0 0 0.5037060779875305 0 0 1582:1 
0 0 0 0 0 0 0 0.2963337004228119 829:1 
0.7357268018434833 0 0 0.4017709487492162 0 0 0 0 72:1 74:1 90:1 114:1 183:1 805:1 
0 0.5884168251901298 0 0 0 0 0 0 532:1 
0.237685890223031 0.2243520646754686 0 0 0 0 0 0 1:1 137:1 189:1 327:1 546:1 779:1 
0 0 0 0.1983062788070177 0 0 0 0 206:1 494:1 867:1 1252:1 1697:1 
0 0.2492331994456001 0 0 0 0 0 0 48:1 589:1 636:1 1818:1 
0.2904139749333559 0 0 0 0 0 0 0 109:1 309:1 926:1 
0 0 0.9899752910454959 0 0 0 0 0 493:1 2048:1 
0.8729563346411365 0 0.2832601898373008 0.2629517642228451 0 0 0 0 138:1 305:1 311:1 337:1 390:1 408:1 1043:1 
0.6968552498083878 0 0 0 0 0 0 0 39:1 322:1 762:1 
0 0.21011768606848 0 0 0 0 0 0 6:1 191:1 242:1 1174:1 
1 0 0 0 0 0 0 0 1007:1 1514:1 
0.1706217713355488 0 0 0.4109806083566787 0 0 0 0 73:1 322:1 484:1 694:1 1239:1 
0 0 0 0 0 0.2537084432684098 0 0 99:1 305:1 321:1 463:1 932:1 
0.2746813848491599 0 0 0 0 0 0 0 15:1 122:1 304:1 379:1 
1 0 0 0 0 0 0 0 236:1 
0.6104298224071929 0 0 0 0 0 0 0 560:1 578:1 595:1 
0.4438461497622063 0 0 0 0 0 0 0 182:1 193:1 526:1 1270:1 1749:1 
0 0 0 0.1704726596989224 0 0 0 0 17:1 408:1 491:1 555:1 1174:1 
0.23852198509453 0 0 0 0 0 0 0 73:1 318:1 1417:1 1835:1 1849:1 
0 0 0 0 0 0.8330240523544166 0 0 122:1 1512:1 
0 0.1494657220241892 0 0 0 0 0 0 30:1 191:1 224:1 291:1 315:1 395:1 651:1 780:1 973:1 1992:1 
0.5997805013574418 0 0 0 0 0 0 0 76:1 
0.2060092511965305 0.471516956066411 0 0 0 0 0 0 54:1 138:1 294:1 846:1 1453:1 
0.3952175659806241 0 0 0 0 1 0 0 306:1 476:1 518:1 557:1 1270:1 
0.321116957466783 0 0.1912178161349605 0 0 0 0 0 72:1 236:1 280:1 381:1 1474:1 1789:1 
0.2501279266147716 0 0 0 0 0 0 0 9:1 304:1 451:1 526:1 1834:1 
0.3056867014185502 0 0 0 0 0 0 0 534:1 1607:1 
0.3024759125789988 0 0 0 0 0 0 0 1832:1 
0 0 0.1665145263145871 0 0 0 0 0 238:1 441:1 1997:1 
0 0.3206694005274751 0 0 0.1109197272527437 0 0 0 457:1 524:1 900:1 1319:1 1795:1 
1 0 0 0 0 0 0 0 254:1 
0 0 0 0 0 0.2610661711438949 0 0 154:1 335:1 357:1 680:1 
0.1693953693534983 0 0 0 0 0 0 0 34:1 65:1 433:1 673:1 752:1 982:1 1413:1 
0 0 0 0 0.1859293557557884 0 0 0 400:1 1147:1 1929:1 
0 0 0 0.08330427888125103 0 0 0 0 463:1 1468:1 
0.07570049321867159 0 0 0 0 0 0 0 12:1 25:1 73:1 151:1 392:1 1249:1 1344:1 2055:1 
0 0.08164642293728405 0 0 0 0 0 0 404:1 551:1 559:1 1080:1 1753:1 
0.4862967301749246 0.7133410945366614 0 0.6097104796540324 0 0 0 0 34:1 735:1 858:1 942:1 
0.3246614113491867 0 0.2070264921077687 0 0 0 0 0 15:1 62:1 1591:1 1791:1 
0 0.5805019032201247 0 0 0 0 0 0 224:1 390:1 653:1 770:1 1329:1 
0 0 0 0 0 0 0.3680356720309882 0 120:1 132:1 265:1 534:1 
0 0 1 0 0 0 0 0 62:1 217:1 
0 0.4085152940542189 0 0.2104876349559662 0 0 0 0 451:1 1265:1 
0 0 0.4399682583615946 0 0 0 0 0 813:1 1248:1 
0.249121875592907 0 0 0 0 0 0 0 0:1 6:1 72:1 140:1 242:1 248:1 478:1 1453:1 
1 0 0 0 0 0 0 0 7:1 16:1 523:1 783:1 797:1 898:1 1632:1 
0 1 0 0 0 0 0 0 64:1 88:1 275:1 599:1 
0 0 0 0 0.3977878095763329 0 0 0 64:1 620:1 
0 0.1047096547409623 0 0 0 0 0 0 568:1 965:1 982:1 1600:1 
0.6242284950186739 0 0 0 0 0 0 0 141:1 716:1 938:1 1012:1 1795:1 
0.1430060710268188 0 0 0 0 0 0 0 696:1 1281:1 
0.1707884568331193 0.09277319689439079 0 0 0 0 0 0 309:1 1416:1 1438:1 1715:1 
0 0.2286595146424766 0 0 0 0 0 0 114:1 557:1 
0 0.3170426865646078 0 0 0 0 0 0 90:1 136:1 236:1 404:1 797:1 1255:1 1277:1 
0.09725432133905812 0 0 0 0 0 0 0 130:1 251:1 413:1 791:1 
0 0 0 0.3039849504940318 0 0 0 0 678:1 1534:1 
0 1 0 0 0 0 0 0 262:1 958:1 
0 0 0.4071075157523897 0 0 0 0 0 342:1 454:1 534:1 
0.2225569264263811 0 0 0 0 0 0 0 15:1 48:1 72:1 138:1 170:1 248:1 
0 0 0 0 0.1734230071242597 0 0 0 96:1 1603:1 
0 0 0 0 0 0.7961768451937682 0 0 54:1 265:1 367:1 
0 0 0.6973843512575646 0 0 0 0 0 287:1 479:1 
0 0.3267212136561765 0 0 0.1728111672060694 0 0 0 109:1 529:1 640:1 813:1 816:1 
0 0.6351399946184013 1 0 0 0 0 0 389:1 420:1 536:1 590:1 1603:1 
1 0 0 0 0 0 0 0 30:1 203:1 247:1 418:1 692:1 807:1 1226:1 
0 0 0.3378304779638905 0 0 0 0 0 342:1 611:1 1129:1 
0 0 0 0.1116185051333771 0 0 0.1051596216463104 0 22:1 48:1 202:1 534:1 1105:1 1957:1 
0 0 0.1212684995181888 0.2427105303649507 0 0 0 0 90:1 475:1 668:1 
0 1 0 0 0 0 0 0 306:1 555:1 717:1 1423:1 
0.1060373809038764 0 0.676871284375745 0 0 0 0 0 15:1 277:1 519:1 555:1 
0 0 0 0.3643279663657816 0 0 0 0 287:1 389:1 479:1 535:1 536:1 
0.9534213343330459 0 0.1838354680360548 0 0 0 0 0 420:1 618:1 807:1 
0 0 0.3304579150486992 0 0 0 0 0 275:1 420:1 619:1 
0.5408883933892766 0 0 0 0.4096180970310956 0 0 0 73:1 121:1 620:1 1114:1 
0 0.1846281626029792 0 0 0 0 0 0 105:1 296:1 412:1 413:1 870:1 
0 0 0.1175781581044916 0 0 0 0 0 19:1 120:1 400:1 
1 0.7848369888440672 1 0 0 0 0 0 292:1 324:1 1140:1 
0.6013498325675335 0 0 0 0 0 0 0 54:1 673:1 716:1 752:1 1007:1 
0 0 0.5569351077809466 0 0 0 0 0 320:1 1181:1 1515:1 
0.7663762516441666 0 0 0 0 0 0 0 25:1 39:1 65:1 335:1 361:1 1394:1 1527:1 
0.4883666992267704 0 0 0 0 0 0 0 63:1 493:1 769:1 805:1 819:1 1694:1 
0 0 0.3026156487424354 0 0 0 0 0 546:1 634:1 951:1 
0 0 1 0 0 0 0 0 54:1 1090:1 
0 0.2788637525808813 0 0 0 0 0 0 723:1 813:1 993:1 1091:1 1677:1 1965:1 
0.6282475031033744 0 0 0 0 0 0 0 7:1 817:1 921:1 
0 0.3880329693181442 0 0 0 0 0 0 214:1 479:1 793:1 
0 0.1236250694862708 0 0.164247816743836 0 0 0 0 11:1 137:1 306:1 463:1 610:1 813:1 
0 0 0.6381038432705556 0 0 0 0 0 201:1 337:1 367:1 503:1 
0.5663950888340346 0 0 0 0 0 0 0 202:1 400:1 534:1 1054:1 1955:1 
0 0 0.1946736362738895 0 0 0 0 0 203:1 484:1 1226:1 
0 0.2353688193647879 0 0 0 0 0 0 3:1 25:1 640:1 1245:1 1388:1 
0.2250301934448975 0 0 0 0 0 0 0 59:1 258:1 673:1 676:1 752:1 941:1 1394:1 
0 0 0.1217059955789659 0 0 0 0 0 349:1 682:1 1515:1 
0 0 0.5835648317842774 0 0 0.07485321733179512 0 0 73:1 83:1 183:1 557:1 673:1 967:1 
0 0 0 0 0.4386178881437999 0 0.1974035377585079 0 141:1 145:1 534:1 683:1 
0 0 1 0 0 0 0 0 35:1 324:1 484:1 803:1 
0 0 0 0.1251095590566609 0 0 0 0 779:1 807:1 1226:1 1805:1 
0.3125321207453563 0 0.5791843736267169 0.09484444895461862 0 0 0.08160104702976971 0 96:1 138:1 180:1 243:1 679:1 901:1 1133:1 1563:1 1573:1 
0 0 0 0.2929144717966055 0 0 0 0 1:1 176:1 1523:1 1822:1 
0 0.4450421529276743 0 0 0 0 0 0 243:1 321:1 1467:1 1866:1 
0.8683137930987963 0 0 0 0 0 0 0 411:1 1368:1 
0.4828790500879514 1 0 0 0 0 0 0 297:1 400:1 404:1 966:1 1530:1 
0.2618955121311929 0 0 0 0 0 0 0 242:1 413:1 1096:1 
1 0.9736398459011584 0 0 0 0 0 0 430:1 1007:1 1067:1 
0.2913022114355167 0 0 0 0 0 0 0 1215:1 1921:1 
0 0 0.4310257801419793 0 0 0 0 0 324:1 389:1 535:1 987:1 1365:1 
0 0.6173768677096411 0 0 0 0 0 0 161:1 247:1 248:1 698:1 
0.784123637073725 0 0.7693648922511884 0 0 0 0 0 1421:1 
0.6193343524778012 0 0 0 0 0 0 0 38:1 96:1 108:1 262:1 728:1 1083:1 1283:1 1815:1 
0 0 0.8405211555140317 0.4919677414301015 0 0 0 0 1:1 30:1 216:1 534:1 779:1 
0 0 0 0 0 0.5824704239631402 0 0 48:1 72:1 1297:1 
0.2745664199666815 0 1 0 0 0 0 0 60:1 62:1 
0.6951194122325408 0.34107250774753 0 0.1469532254906808 0 0.3696771359454659 0 0 65:1 176:1 680:1 
0.4433965733855538 0 0 0 0 0 0 0 107:1 294:1 
0 0 0 0 0.1484595053759576 0 0 0 105:1 116:1 305:1 546:1 549:1 555:1 833:1 1080:1 
0 0 0.8443845189832744 0 0 0 0 0 1868:1 
0 0.2410238379712349 0 0 0 0 0 0 15:1 590:1 982:1 
1 0 0 0 0 0 0 0 177:1 
0 1 0 0 0 0 0 0 61:1 214:1 
0 0 0.6875491542607505 0 0.207869135980124 0 0 0 7:1 941:1 1153:1 1392:1 
1 0 0 0 0 0 0 0 16:1 30:1 315:1 1151:1 
0 0 0 0 0.3626017201985839 0 0 0 27:1 320:1 534:1 769:1 
0 0 0.1756724352096694 0 0 0 0 0 5:1 241:1 342:1 856:1 1401:1 1978:1 
0.7939907488034695 0 0.3269513943058847 0 0 0 0 0 294:1 430:1 1383:1 
0 0 0.3830008100140763 0 0 0 0 0 508:1 564:1 620:1 
1 0 0 0.1011279520153736 0 0 0 0 12:1 26:1 212:1 305:1 463:1 479:1 582:1 
0 0 0 0 0.4970505619132694 0 0 0 106:1 114:1 212:1 382:1 407:1 819:1 
0 0 0 0.1477047196303075 0 0 0 0 3:1 102:1 186:1 766:1 
0 0 0 0.2488142590592849 0 0 0 0 34:1 173:1 181:1 241:1 492:1 
0.2116082045202791 0 0 0 0 0 0 0 35:1 141:1 279:1 294:1 601:1 692:1 819:1 1384:1 1900:1 
0.7572007547996167 0 0 0 0 0 0 0 719:1 
0 0.6522069681885577 0 0 0 0 0 0 657:1 823:1 1561:1 
0 1 0 0 0 0 0 0 1454:1 
0 0.4269827503059529 0 0 0 0 0 0 55:1 390:1 670:1 1289:1 1320:1 
0.7789110241387743 0 0 0 0 0 0 0 61:1 673:1 
1 0 0 0 0 0 0 0 50:1 82:1 236:1 
0.3760892257535735 0 0 0 0 0 0 0 984:1 1883:1 
0.2836742824110972 0.3985968131533926 0 0 0.3648983579112463 0 0 0 599:1 2007:1 
0 0 0.1620602851182914 0 0 0 0 0 41:1 211:1 227:1 1083:1 
0.7450101893192073 0 0 0 0 0 0 0 183:1 239:1 529:1 618:1 819:1 948:1 1902:1 
0.3377694615096005 0 0 0 0 0 0 0.1624856446346864 25:1 87:1 106:1 241:1 399:1 1329:1 
0 0 0.5015868862712807 0 0.1661960126174493 0 0 0 19:1 24:1 389:1 423:1 1103:1 1551:1 1595:1 
0 0 0 0.4779152479846459 0 0 0 0 25:1 121:1 1086:1 
1 0 0 0 0 0 0 0 25:1 376:1 435:1 785:1 1734:1 
0.2743322576291447 0 0 0 0 0 0 0 121:1 414:1 510:1 907:1 
0 0 0.1759721173305747 0 0 0 0 0 30:1 191:1 383:1 603:1 1349:1 
0 0 0 0 0.1870761581055029 0 0 0 19:1 423:1 684:1 1393:1 1887:1 
0 0 0.6759152614823042 0 0 0 0 0 82:1 176:1 284:1 292:1 1157:1 
0 0.1692462899873566 0 0 0 0 0 0 52:1 105:1 327:1 
0 1 0 0 0 0 0 0 96:1 140:1 888:1 1103:1 
0 0 0.8123548925908011 0 0 0 0 0 293:1 294:1 394:1 
0 0.3671651947355201 0 0 0 0 0 0 138:1 524:1 
0 0.2777645231995965 0 0 0 0 0 0 88:1 224:1 296:1 382:1 
0.3396785565437305 0 0 0 0 0 0 0 1024:1 1227:1 
0.4555264115591144 0.2314867503318533 0 0.2215223529722533 0 0 0 0 177:1 197:1 413:1 430:1 807:1 1252:1 1495:1 
0 0 0.6831728091019322 0 0 0 0 0 64:1 
0.417891292928343 0 0 0 0 0 0 0 574:1 1480:1 1568:1 1816:1 
1 0 0 0 0 0 0 0 525:1 
0 0 0.2218663869064786 0 0 0 0 0 129:1 294:1 572:1 2074:1 
0 0 0 0.07363275380406606 0 0 0 0 173:1 407:1 676:1 
1 0 0 0 0 0 0 0 1013:1 
0 0 0 0 0.3314948674106237 0 0 0 54:1 265:1 335:1 367:1 716:1 
0 0.5006789695888105 0 0 0 0 0 0 173:1 242:1 465:1 798:1 
0 0 0.2339815577187067 0 0 0 0 0 17:1 177:1 378:1 563:1 1664:1 
0 0.4624210147954297 0 0 0 0 0 0 1546:1 
1 0 0 0 0 0 0 0 177:1 
1 0 0 0 0 0 0 0 120:1 907:1 
0 0.1133773419404693 0 0 0 0 0 0 54:1 287:1 504:1 648:1 988:1 1293:1 1492:1 
0 0.1499990390726652 0 0 0 0 0 0 30:1 97:1 275:1 367:1 872:1 1457:1 1930:1 
0 0 0 0 0 0 0.3903830471296795 0 640:1 
0 0.1180072197159155 0 0 0 0 0 0 722:1 
0 0.6322700077572039 0.7802667552265998 0 0 0 0 0 15:1 221:1 1154:1 1194:1 
0.1966631649044012 0 0 0 0 0 0 0 6:1 141:1 153:1 
0 0 0 0.5389112967552898 0 0 0 0 73:1 327:1 479:1 527:1 673:1 785:1 1525:1 
0 0 0 0.02183477722860028 0 0 0 0 90:1 141:1 252:1 275:1 1325:1 
0.7973691656485802 0.2961708571379869 0 0 0 0 0 0 96:1 322:1 673:1 799:1 
0.9345776244519979 1 0.8695412345091253 0 0 0 0 0 414:1 542:1 551:1 734:1 
0 0 1 0 0 0 0 0 138:1 389:1 536:1 637:1 818:1 1641:1 
0 0.549480923572237 0 0 0 0 0 0 491:1 813:1 
0 0.1764285027149134 0 0.4738881936015873 0 0 0 0 408:1 1297:1 2076:1 
0.1538931073187246 0 0 0 0 0 0 0 179:1 247:1 258:1 289:1 856:1 
0 1 0 0 0 0 0 0 19:1 136:1 524:1 
0.2640544780285537 0 0 0 0 0 0 0 64:1 717:1 778:1 1299:1 
0.4358831732385899 0 0 0 0 0 0 0 178:1 306:1 1137:1 
0 0 0 0.511606775424124 0 0 0 0 90:1 434:1 524:1 1037:1 1254:1 
0.2184007750676037 0.6382254967714716 0 0.1022979212171966 0 0 0 0 25:1 71:1 248:1 265:1 288:1 
0 0.3075476512122907 0 0.4772619282604745 0 0.139482730158291 0 0 39:1 136:1 248:1 315:1 1102:1 1320:1 
0.1765329924784022 1 0 0 0 0 0 0 15:1 73:1 561:1 858:1 969:1 
0 0.1272258925737059 0.1242809049073522 0 0 0 0 0 30:1 82:1 99:1 103:1 193:1 532:1 813:1 
0.2025314500239587 0 0 0 0 0 0 0 22:1 367:1 1808:1 
0 0.3907938539569493 0 0 0 0 0 0 48:1 680:1 
1 0 0 0 0 0 0 0 959:1 
0 0 0 0 0 0 0.2323200031764689 0 6:1 19:1 55:1 141:1 423:1 459:1 
0.5362485417578809 0 0 0 0 0 0 0 183:1 476:1 723:1 968:1 
0 1.390279168056452e-05 0 0 0 0 0 0 451:1 562:1 571:1 626:1 977:1 1291:1 1432:1 1996:1 
1 0 0 0 0 0 0 0 175:1 
0 0.7068415044158981 0 0 0 0 0.06850134606532712 0 52:1 214:1 254:1 
1 0 0.3663560767194951 0 0 0 0 0 73:1 116:1 132:1 191:1 203:1 618:1 896:1 1086:1 1403:1 
0.423193360772825 0 0 0 0 0 0 0 179:1 248:1 281:1 1010:1 1438:1 1616:1 
0.1161216265520313 0 0 0 0 0 0 0 311:1 627:1 1169:1 1549:1 2078:1 
0.09596203193774015 0 0 0.07132853093168577 0 0 0 0 25:1 214:1 275:1 463:1 485:1 599:1 939:1 1573:1 
0 0 0 0.1120547777370952 0 0 0.07386167416784262 0 25:1 30:1 181:1 252:1 349:1 433:1 464:1 640:1 769:1 1022:1 1522:1 1651:1 1753:1 
0.2444933926158935 0.6257620715744905 0 0 0 0 0 0 582:1 
0.3809433779083164 0 0.2446143584185486 0 0 0 0 0 15:1 1453:1 1490:1 
0 0 0.308553035558176 0 0 0 0 0 768:1 
0.2524980787552353 0 0 0 0 0 0 0 161:1 321:1 425:1 524:1 577:1 1320:1 
0 0 0 0 0.109008062471103 0 0 0 425:1 670:1 803:1 982:1 1671:1 
0 0 0 0 0 0 0.6224948376194005 0 16:1 433:1 
1 0 0 0 0 0 0 0 141:1 
0 0 0.4994753341223493 0 0 0 0 0 504:1 1285:1 1422:1 
0.07115709614537921 0 0 0 0 0 0 0 366:1 896:1 1467:1 2021:1 
0 0 0 0 0 0.07273618525911214 0 0 30:1 61:1 174:1 177:1 191:1 213:1 407:1 602:1 691:1 938:1 974:1 
0.375167408377469 0 0 0 0 0 0 0 1913:1 
0 0 0.3532285145813279 0 0 0 0 0 14:1 72:1 88:1 127:1 229:1 452:1 563:1 577:1 822:1 1561:1 
0.890625617441512 0 0 0 0 0 0 0 38:1 414:1 465:1 551:1 738:1 968:1 1225:1 
0.3889011748321643 0 0 0 0 0 0 0 19:1 30:1 297:1 298:1 318:1 669:1 1008:1 1301:1 1344:1 
0.08631474156338645 0 0 0 0 0.1625134896406187 0 0 21:1 64:1 121:1 162:1 519:1 524:1 611:1 
1 0 0 0 0 0 0 0 61:1 115:1 435:1 728:1 
0 0 0 0.4099281299835983 0 0 0 0 141:1 479:1 485:1 601:1 1540:1 
0 0 0 0 0 0.3077922954725054 0 0 174:1 236:1 265:1 
0.7742567931306981 0 1 0 0 0 0 0 54:1 88:1 142:1 720:1 
0.03226964445511299 0 0 0 0 0 0 0 479:1 968:1 1466:1 
0.6621920370217809 0 0 0 0 0 0 0 22:1 50:1 75:1 239:1 957:1 
1 0 0 0 0 0 0 0 15:1 
0 0.8629653229918062 0 0 0 0 0 0 404:1 673:1 
0 0 0 0.08867030369296371 0 0 0 0 34:1 584:1 1230:1 1313:1 1381:1 1851:1 2082:1 
0.3717139818137305 0.08830154224129141 0.1296608740089858 0 0 0 0 0 179:1 203:1 302:1 507:1 541:1 605:1 
0.3059193095732246 0 0 0 0 0 0 0 12:1 25:1 183:1 256:1 546:1 574:1 959:1 1646:1 1831:1 
0.8892548815888357 0 0.3643360604617868 0 0 0 0 0 1952:1 
0.054170223865954 0 0 0 0 0 0 0 9:1 101:1 243:1 252:1 257:1 305:1 463:1 764:1 785:1 1122:1 1281:1 1805:1 
0 0.5433786273767787 0 0 0 0 0 0 39:1 269:1 404:1 459:1 
0 0 0 0 0.0355417357419297 0.1210429094688444 0 0 50:1 295:1 381:1 382:1 814:1 892:1 946:1 1200:1 1309:1 1460:1 1594:1 1718:1 1829:1 
0 0 0 0 0.06105413912306663 0.001870035622772555 0 0 19:1 34:1 73:1 103:1 116:1 122:1 404:1 474:1 560:1 714:1 769:1 812:1 1051:1 1518:1 2084:1 
0 0.1056563890196181 0 0 0 0 0 0 6:1 69:1 79:1 80:1 841:1 1352:1 1353:1 1506:1 
0.375308226128211 0 0 0 0 0 0 0 37:1 120:1 121:1 414:1 503:1 1548:1 1929:1 2016:1 
0.2747928131993643 0 0 0 0 0 0 0 183:1 599:1 937:1 
0 0.1192594113493627 0 0 0 0 0 0 25:1 26:1 38:1 138:1 189:1 266:1 389:1 423:1 493:1 534:1 536:1 801:1 907:1 
0.2140425286568292 0.2253743278066628 0 0 0 0 0 0 75:1 741:1 
1 0 0 0 0 0 0 0 225:1 369:1 488:1 1144:1 1362:1 
0 0.2965939794372651 0 0 0 0.1885626129602178 0 0 30:1 369:1 714:1 741:1 884:1 1111:1 
1 0 0 0 0 0 0 0 305:1 315:1 474:1 932:1 
0 0.1107441183516799 0 0 0 0 0 0 259:1 523:1 648:1 
0.1732830644972989 0.4717104124840188 0 0 0 0 0 0 57:1 305:1 1255:1 2086:1 
0 0 0.1517174627182777 0 0 0 0 0 50:1 59:1 1545:1 
0.163933638263118 0 0 0 0 0 0 0 275:1 367:1 1017:1 1148:1 1255:1 
0.1605153497820706 0.4592768043819072 0 0 0 0 0 0 762:1 1495:1 
0 0 0.2472046101765313 0 0 0 0 0 64:1 391:1 444:1 500:1 
0.7716800031689239 0 0 0 0 0 0 0 30:1 134:1 174:1 670:1 1109:1 1431:1 
0 0.06946125656681795 0 0 0 0 0.06400477772315825 0 17:1 30:1 34:1 75:1 107:1 114:1 115:1 140:1 153:1 342:1 648:1 774:1 986:1 1239:1 1394:1 1766:1 
0 0 0.3139977438685432 0 0 0 0 0 132:1 394:1 412:1 479:1 779:1 863:1 
0.7866070049845256 0 0 0 0 0 0 0 9:1 27:1 96:1 114:1 287:1 305:1 320:1 507:1 620:1 
0 0.01988106764112646 0.1952448841683044 0 0 0 0 0 30:1 109:1 229:1 372:1 925:1 1192:1 1236:1 1717:1 2046:1 
0.03182607598633934 0 0 0 0 0 0 0 67:1 91:1 127:1 294:1 438:1 626:1 937:1 1275:1 1289:1 1758:1 1778:1 2057:1 
0 0 0 0 0 0.115452407695472 0 0 106:1 133:1 246:1 1733:1 
1 0 0 0 0 0 0 0 75:1 195:1 638:1 
0 0 0 0.2003784019402809 0 0 0 0 17:1 611:1 695:1 846:1 1934:1 
0.07258162692939704 0 0.02341812778002765 0 0 0 0 0 73:1 114:1 134:1 367:1 608:1 719:1 825:1 1113:1 2090:1 
0.9372603704013929 0 0 0 0 0 0 0 13:1 244:1 545:1 838:1 934:1 
0 0 0 0 0 0 0 0.1624914915077346 30:1 38:1 161:1 309:1 418:1 640:1 738:1 
0 0.4138028429255702 0 0.5037433045249019 0 0 0 0 32:1 66:1 654:1 982:1 
0.6361277722783828 0 0.2281523179424892 0 0 0 0 0 32:1 62:1 244:1 293:1 294:1 390:1 731:1 837:1 838:1 863:1 1014:1 
0.4937915596888038 0 0.4578036454968939 0 0 0 0 0 144:1 1075:1 1385:1 
0.1443196329392212 0.1500845885966371 0 0 0 0 0 0 61:1 72:1 1478:1 1733:1 2007:1 2093:1 
0 0 0 0 0 0.1389251386542146 0 0 39:1 48:1 72:1 116:1 197:1 224:1 1713:1 
0.5065826804888158 0 0 0 0 0 0 0 247:1 430:1 640:1 1254:1 
0 0 0 0 0 0.04379235282734811 0 0 97:1 174:1 177:1 569:1 
0 1 0 0 0 0 0 0 254:1 287:1 813:1 
0.5403501095176947 0 0 0 0 0 0 0 73:1 217:1 388:1 389:1 535:1 620:1 626:1 769:1 1133:1 1804:1 
0 0.1151138817926617 0 0 0 0 0 0 244:1 404:1 604:1 1823:1 
0 0 0 0.1157357227860339 0 0 0 0 15:1 67:1 68:1 69:1 195:1 242:1 916:1 1277:1 
0 0 0 0 0.1756220805114815 0 0 0 48:1 518:1 1270:1 1372:1 
0 0 0.1851742380538191 0 0 0 0 0 247:1 752:1 1596:1 
0 0 0.1301413014197189 0 0 0 0 0 5:1 15:1 59:1 75:1 294:1 674:1 792:1 996:1 1024:1 
0 0.3052137664854684 0 0 0 0 0 0 424:1 569:1 740:1 
0 1 0 0 0 0 0 0 214:1 843:1 
0 0.2667146006298622 0.3509636311519297 0 0 0 0 0 101:1 213:1 604:1 842:1 1046:1 1742:1 
0.1950155574841483 0 0 0 0 0 0 0 552:1 754:1 800:1 1681:1 
0 0.2028974635714265 0 0 0 0 0 0 136:1 335:1 524:1 817:1 
0.526480354165478 0 0 0 0 0 0 0 73:1 252:1 371:1 
0.4457056562051172 0 0 0 0 0 0 0 61:1 115:1 228:1 493:1 507:1 573:1 691:1 
0.3052588244262606 0 0 0 0 0 0 0 25:1 120:1 404:1 1596:1 
0 0.9552486155046953 0 0 0 0 0 0 157:1 404:1 
0 0.3354403827340874 0 0 0 0 0 0 181:1 183:1 414:1 492:1 1164:1 
0 0 0 0 0.1086287876349712 0 0 0 33:1 39:1 121:1 145:1 287:1 364:1 795:1 1965:1 
1 0 0 0 0 0 0 0 121:1 1454:1 
0 0 1 0 0 0 0 0 390:1 419:1 
0 0 0 1 0 0 0 0 7:1 30:1 492:1 
0.1824062642348699 0 0 0 0 0 0 0 767:1 836:1 1271:1 1556:1 1936:1 2094:1 
0.7860913813101633 0 0 0 0 0 0 0 135:1 322:1 324:1 404:1 477:1 558:1 1001:1 1248:1 1991:1 
0.674860442071278 0 0 0 0 0 0 0 189:1 248:1 252:1 1557:1 
1 0 0 0 0 0 0 0 59:1 135:1 212:1 1478:1 1494:1 
0 0.08598960349038871 0 0 0 0 0 0 34:1 56:1 183:1 206:1 383:1 532:1 1039:1 1598:1 
0.5987170708203315 0 0 0 0 0 0 0 291:1 324:1 372:1 389:1 536:1 1007:1 
0 0.2418629282190317 0 0 0 0 0 0 73:1 181:1 209:1 981:1 1363:1 1892:1 
0 0 0 0 0.1377187798223843 0 0 0 73:1 121:1 287:1 309:1 418:1 423:1 673:1 1087:1 
1 0 0.2488196155687367 0 0 0 0 0 5:1 217:1 306:1 390:1 
0 0 0 0 0.2744608714514356 0 0 0 145:1 215:1 673:1 717:1 833:1 1051:1 
0.3700069008847032 0 0 0 0 0 0 0 474:1 611:1 684:1 1715:1 2069:1 
0 0 0.06712179356259666 0 0 0 0 0 141:1 165:1 805:1 847:1 951:1 981:1 1225:1 1673:1 2077:1 
0 0 0.2555778411081748 0 0 0.1971038710023048 0 0 65:1 394:1 982:1 
0 0 1 0 0 0 0 0 673:1 752:1 
1 0 0 0 0 0.1792913375551825 0 0 35:1 48:1 414:1 595:1 684:1 1657:1 
0.3724527178301048 0.2104582046274353 0 0 0 0 0 0 266:1 313:1 1058:1 
0.6715513659430276 0 0 0 0 0 0 0 191:1 365:1 1722:1 
0.6820512140057652 0 0 0 0 0 0 0 26:1 322:1 640:1 824:1 857:1 867:1 
0 0 0.05202817805119998 0 0 0 0 0 7:1 110:1 193:1 376:1 568:1 788:1 1239:1 1286:1 
1 0 0 0 0 0 0 0 173:1 691:1 
0 0.2777791617664196 0 0 0 0 0 0 72:1 97:1 173:1 191:1 275:1 308:1 365:1 404:1 858:1 1385:1 
0 0 0 0 0.1166652464455174 0 0 0 40:1 187:1 402:1 532:1 603:1 656:1 673:1 774:1 819:1 960:1 968:1 1025:1 1301:1 
0 0 0.2783953499832606 0 0 0 0 0 117:1 118:1 563:1 
0.06782997768893995 0 0 0 0 0 0 0 30:1 189:1 381:1 385:1 425:1 493:1 552:1 604:1 779:1 960:1 1252:1 1410:1 1415:1 1474:1 1980:1 2033:1 
1 0 0 0 0 0 0 0 27:1 39:1 425:1 
0 0 0 0.5043512495152646 0 0 0 0 39:1 108:1 265:1 287:1 655:1 
1 0 0 0 0 0 0 0 1007:1 
0.3744775584276567 0 0 0 0 0 0 0 27:1 182:1 689:1 791:1 
1 0 0.224687692831939 0 0 0 0.2452072978279514 0 138:1 306:1 440:1 479:1 
0 0 0 0 0 0.01960247170755461 0 0 187:1 211:1 400:1 457:1 462:1 796:1 856:1 896:1 1830:1 1873:1 
0.164336848501044 0 0 0 0 0 0 0 25:1 138:1 188:1 473:1 
0 0 0 0.2193943657563139 0 0 0 0 52:1 133:1 162:1 176:1 275:1 601:1 
0.1163189762964859 0 0 0 0 0 0 0 295:1 985:1 1758:1 1801:1 
0.167140979543253 0 0 0 0 0 0 0 284:1 868:1 1440:1 
0 0 0 0.2921896434447055 0 0 0 0 248:1 1015:1 1109:1 1559:1 1923:1 
0.5261548150426756 0 0 0 0.07733423407837214 0 0 0 23:1 50:1 170:1 272:1 274:1 312:1 315:1 429:1 454:1 742:1 942:1 
0 0 0 0 0 0 0.07865769444064589 0 28:1 200:1 254:1 562:1 740:1 999:1 1224:1 1349:1 1643:1 1888:1 2047:1 
0 0.08480662244787254 0 0 0 0 0 0 222:1 275:1 404:1 508:1 819:1 1106:1 1160:1 1383:1 1895:1 1943:1 1944:1 
0.2628898890831561 0 0 0 0 0 0 0 954:1 1235:1 1361:1 1937:1 
0 0 0 0.4695918130338058 0 0 0.7319982348665767 0 30:1 34:1 39:1 819:1 
0 0 0 1 0 0 0 0 73:1 133:1 670:1 1109:1 
0 0 0.3323938701540812 0 0 0 0 0 136:1 493:1 882:1 
0.2320036226950749 0 0 0 0 0 0 0 342:1 1439:1 
0 0.1962776317219493 0.1035254168663266 0 0 0 0 0 88:1 294:1 366:1 462:1 
0 0 0 0.1442813006240578 0 0 0 0 35:1 108:1 114:1 173:1 195:1 242:1 281:1 798:1 1371:1 1916:1 
0 0 0 0 0 0.1326128132337035 0 0 19:1 61:1 141:1 569:1 667:1 670:1 970:1 1404:1 1426:1 
0.2057819756954654 0 0.2126512303674328 0 0 0 0 0 27:1 98:1 657:1 1795:1 
0 0 0.3692704650215997 0 0 0 0 0 62:1 64:1 171:1 197:1 214:1 292:1 391:1 507:1 573:1 
0 0.2885566481051235 0.1052028511290592 0 0 0 0 0 19:1 423:1 568:1 651:1 779:1 1984:1 
0 0 0 0.2938647534207306 0 0 0 0 145:1 678:1 2047:1 
0.1367309184784797 0.4317276127831101 0 0 0 0 0 0 61:1 181:1 337:1 355:1 413:1 534:1 925:1 1386:1 1703:1 
0.5081771671790893 0.1872993119271912 0 0 0 0 0 0 25:1 82:1 96:1 193:1 532:1 604:1 669:1 1505:1 1849:1 
0 0.1463963685429585 0 0 0 0 0 0 214:1 718:1 
0.1151777654122629 0 0 0 0 0 0 0 25:1 92:1 104:1 224:1 291:1 306:1 338:1 882:1 1704:1 1937:1 
0.3780060302988074 0 0 0 0 0 0 0 40:1 48:1 248:1 425:1 519:1 524:1 583:1 
0.8722463478965257 0 0 0 0 0 0 0 151:1 229:1 452:1 534:1 
0 0.1840153599365203 0 0 0 0 0 0 34:1 390:1 1489:1 
0 0 0 0 0 0 0 0.1320701668678817 38:1 120:1 400:1 595:1 
0 0 0.1161409000547967 0 0 0 0 0 98:1 415:1 534:1 838:1 934:1 1171:1 2091:1 
0 0 0 0 0 0.1394971506648004 0 0 39:1 72:1 103:1 457:1 671:1 743:1 819:1 1544:1 
0 0.2978440887382385 0 0 0 0 0 0 859:1 1824:1 
0 1 0 0 0 0.08746282946476586 0 0 19:1 39:1 88:1 96:1 202:1 932:1 1676:1 
0 0 0 0 0.2053615860883056 0 0 0 1501:1 
0 0 0 0 0 0 0.2018013842888542 0 61:1 248:1 425:1 608:1 766:1 770:1 819:1 
0.2681887108931356 0 0 0 0 0 0 0 73:1 111:1 154:1 171:1 301:1 449:1 458:1 577:1 941:1 
0 0 0.4219123350462143 0 0 0 0 0 34:1 264:1 508:1 805:1 
0.0008102031954923677 0 0 0 0 0 0 0 19:1 114:1 241:1 407:1 637:1 676:1 1586:1 
0.4492720799844574 0 0 0 0 0 0 0 22:1 95:1 126:1 937:1 1222:1 1323:1 
0.286527068404573 0 0 0 0 0 0 0 100:1 195:1 367:1 593:1 783:1 848:1 1052:1 1682:1 1872:1 
0 0 0 0 0.0534157625061035 0 0 0 7:1 19:1 25:1 137:1 562:1 769:1 872:1 1167:1 
0.5442254866094915 0 0 0 0 0 0 0 4:1 87:1 243:1 1171:1 1614:1 
0 0 0 0 0.2099793201246863 0 0 0 88:1 116:1 140:1 309:1 524:1 612:1 714:1 1928:1 
0 0.1524726855006065 0 0 0 0 0 0 449:1 941:1 1193:1 1340:1 
0 0 0 0.3093006589370519 0 0 0 0 102:1 619:1 714:1 768:1 802:1 1563:1 
0.3994024915792806 1 0 0 0 0 0 0 144:1 152:1 958:1 
0.312263989829873 0 0.1567944121405425 0 0 0 0 0 288:1 673:1 752:1 1411:1 
0.4511004323410007 0 0 0 0 0 0 0 21:1 57:1 534:1 698:1 724:1 783:1 814:1 977:1 1087:1 1567:1 
0 0 0 0.1711103845793741 0 0 0 0 2:1 1238:1 1360:1 1405:1 
0.7956980564926952 0 0 0 0 0 0 0 50:1 429:1 
0.2777419149935551 0 0 0 0 0 0 0 336:1 763:1 
0.1681417274683039 0 0 0 0 0 0 0 50:1 54:1 65:1 120:1 324:1 534:1 1040:1 
0 0 0 0 0 0 0 0.1830871207597503 3:1 6:1 13:1 88:1 137:1 347:1 783:1 807:1 1252:1 1529:1 1542:1 1635:1 
0 0 1 0 0 0 0 0 1114:1 1545:1 
0 0 0.2559049719966011 0 0 0 0 0 201:1 619:1 1410:1 
0.1516271055223518 0 0 0 0 0 0 0 22:1 97:1 141:1 173:1 191:1 391:1 1422:1 
0 0 0.0518532441924866 0 0 0 0 0 34:1 138:1 305:1 486:1 598:1 907:1 1075:1 1226:1 1267:1 
0 0 0.8436550981298137 0 0 0 0 0 420:1 590:1 658:1 
0.3073115707479205 0 0 0 0 0 0 0 15:1 138:1 187:1 751:1 1007:1 1087:1 
0 0 0.2093272432609404 0 0 0 0 0 389:1 599:1 1153:1 1435:1 
0.2423044218018267 0 0 0 0 0 0 0 20:1 141:1 325:1 479:1 483:1 1275:1 1484:1 
0 0 0.115343462708133 0 0 0.5982574356701909 0 0 61:1 367:1 389:1 440:1 536:1 590:1 909:1 
0 0 0 0.1302446361308693 0 0 0 0 102:1 565:1 704:1 1282:1 1315:1 2108:1 
0 0 0 0.546315386839183 0 0 0 0 30:1 816:1 
0.3030368856184539 0 0 0 0 0 0 0 52:1 73:1 88:1 122:1 153:1 331:1 378:1 478:1 504:1 817:1 
0.1380000464222879 0 0 0 0 0 0 0 34:1 212:1 224:1 292:1 385:1 625:1 685:1 777:1 959:1 1023:1 1245:1 1288:1 1329:1 1460:1 
0.4276167827270214 0 0 0 0 0.08991010622574863 0 0 38:1 39:1 112:1 863:1 1050:1 1383:1 
0 0.1530855197467808 0 0 0 0 0 0 404:1 478:1 648:1 813:1 938:1 2069:1 
0.7513849467080642 0 0 0 0 0 0 0 11:1 114:1 189:1 197:1 216:1 248:1 493:1 908:1 
0.08230618638085301 0 0 0 0 0 0 0 6:1 133:1 141:1 329:1 714:1 718:1 1275:1 1867:1 
0 0 0 0 0 0.3790042540062249 0 0 5:1 252:1 457:1 601:1 620:1 
0 0 0 0 0.2101934050815583 0 0 0 76:1 183:1 478:1 506:1 524:1 714:1 1231:1 
0.1320689680875546 0 0 0 0 0 0 0 132:1 275:1 367:1 381:1 382:1 888:1 1242:1 
0.2611589537461258 0 0 0 0 0 0 0 127:1 661:1 
0.3263664955216702 0 0 0 0 0 0 0 14:1 19:1 65:1 391:1 
0 0.3519175789908736 0 0 0 0 0 0 92:1 289:1 606:1 755:1 1744:1 1770:1 
0 0 0.1463992055485143 0 0 0 0 0 54:1 262:1 626:1 897:1 922:1 1773:1 
0.1434296890501127 0 0.2838185619710777 0 0 0 0 0 65:1 231:1 241:1 458:1 819:1 830:1 1472:1 
0 0 0 0 0 0.08681636150239488 0 0 21:1 38:1 52:1 305:1 773:1 1023:1 1051:1 
0 0.3166774116815408 0 0 0 0 0 0 479:1 527:1 896:1 2072:1 
0.9145500081670038 0 0 0 0 0 0 0 3:1 281:1 599:1 965:1 1045:1 
0 0 0.07466026481984181 0 0 0 0 0 15:1 107:1 348:1 673:1 683:1 980:1 989:1 1248:1 1597:1 
0 0.2503842125089928 0 0 0 0 0 0 55:1 103:1 311:1 413:1 532:1 551:1 676:1 742:1 1701:1 2113:1 2114:1 
0.260576220304054 0.1347045888837578 0 0 0 0 0 0 9:1 22:1 30:1 35:1 74:1 96:1 111:1 137:1 238:1 294:1 323:1 396:1 526:1 557:1 570:1 972:1 1498:1 
0 0.07034583583938248 0 0 0 0 0 0 61:1 97:1 106:1 311:1 400:1 408:1 417:1 418:1 532:1 
0 0 0.1095755325113307 0 0 0 0 0 169:1 217:1 318:1 324:1 777:1 1143:1 
0 0 0.1283156564068035 0 0 0 0 0 25:1 28:1 256:1 417:1 779:1 922:1 1015:1 1073:1 1934:1 
0.06743951972768815 0 0 0 0 0 0 0 141:1 244:1 247:1 258:1 545:1 576:1 676:1 791:1 
0 1 0 0 0 0 0 0 120:1 1297:1 1717:1 
0 0 0 0 0.08104668544452232 0 0 0 141:1 420:1 444:1 619:1 692:1 825:1 1579:1 
0.5672933311486057 0.04906712650640244 0 0 0 0 0 0 144:1 179:1 248:1 656:1 907:1 
0 0.6533826899840767 0 0.2072524449245324 0 0 0 0 555:1 922:1 1221:1 1238:1 
0.3763592729888771 0 0 0 0 0 0 0 65:1 97:1 464:1 567:1 650:1 
0.4327922115267886 0 0 0 0 0 0 0 962:1 
0 0 0 0 0.1065226871866404 0 0 0 156:1 244:1 287:1 484:1 489:1 669:1 671:1 
0 0 0.3032428863843996 0 0 0 0 0 342:1 345:1 1943:1 
0 0.1253067119236821 0 0 0 0 0 0 90:1 244:1 808:1 1502:1 1713:1 
0 0 0 0 0 0.08752163973124354 0 0 50:1 103:1 214:1 232:1 312:1 1494:1 1644:1 1726:1 2115:1 2116:1 
0.1771618548449469 0 0 0 0 0 0 0 130:1 294:1 337:1 388:1 474:1 
0 0.06624153981794006 0 0 0 0 0 0 155:1 457:1 
